tree
version=v4
num_class=1
num_tree_per_iteration=1
label_index=0
max_feature_idx=46
objective=regression
feature_names=first_temperature heat_duration_count heat_duration_std Bulk_1_mass Bulk_2_mass Bulk_3_mass Bulk_4_mass Bulk_5_mass Bulk_6_mass Bulk_7_mass Bulk_10_mass Bulk_11_mass Bulk_12_mass Bulk_13_mass Bulk_14_mass Bulk_15_mass Bulk_1_time Bulk_2_time Bulk_3_time Bulk_4_time Bulk_5_time Bulk_6_time Bulk_7_time Bulk_9_time Bulk_10_time Bulk_11_time Bulk_12_time Bulk_13_time Bulk_14_time Bulk_15_time Wire_1_mass Wire_2_mass Wire_3_mass Wire_4_mass Wire_6_mass Wire_7_mass Wire_9_mass Wire_1_time Wire_2_time Wire_3_time Wire_4_time Wire_6_time Wire_7_time Wire_8_time Wire_9_time gas power
feature_infos=[1519:1660] [1:16] [0:273.52422196215093] [0:185] none [0:454] [0:276] [0:293] [0:503] none [0:159] [0:313] [0:1849] none [0:636] [0:405] [-3227.6666667461395:10924.3125] none [-1638.2000000476837:10933.272727251053] [-2104.4000000953674:7272.3125] [-1082.8333332538605:7023.3125] [-1690.75:10645.272727251053] none none [-926.5:4407.25] [-1608.6666667461395:3545.0909090042114] [-1602:10196.272727251053] none [-887.90909099578857:9921.2727272510529] [-2749.7272727489471:8710.6666667461395] [0:330.31442400000003] [0:282.78015200000004] [0:385.008668] none [0:180.45457500000001] none none [-6056.7142856121063:8565.6666667461395] [-6403.7142856121063:1164.3333332538605] [-5822.7272727489471:2003.3125] none [-3227.6666667461395:986.3125] none none none [0.0083985290999999997:77.995039662300002] [49.950468000000001:89329.105465000015]
tree_sizes=947 978 970 978 979 971 964 966 966 969 974 976 975 979 981 971 975 981 976 976 976 970 974 971 973 972 969 973 980 982 978 979 980 980 987 984 978 980 978 975 983 988 978 979 995 984 982 977 978 984 984 991 982 993 984 986 983 973 979 988 978 988 978 992 982 985 971 983 996 981 994 982 980 980 996 977 979 999 990 981 990 995 986 994 976 979 994 991 993 987 990 978 983 997 995 993 985 991 987 987 992 972 996 974 972 973 972 972 975 995 983 981 974 988 969 982 982 988 986 977 991 992 977 974 989 984 985 993 978 995 982 995 1000 978 990 988 985 976 986 994 996 989 994 997 999 982 984 978 979 984

Tree=0
num_leaves=10
num_cat=0
split_feature=30 46 0 12 0 8 15 46 0
split_gain=15804.3 11178.3 5706.72 5242.32 4714.49 4463.21 3365.23 3747.61 3128.1
threshold=92.078998500000026 8546.0687095000012 1563.5000000000002 149.00000000000003 1592.5000000000002 1.0000000180025095e-35 116.50000000000001 4051.1540510000004 1568.5000000000002
decision_type=2 2 2 2 2 2 2 2 2
left_child=2 4 -1 -4 5 -2 -6 -8 -3
right_child=1 8 3 -5 6 -7 7 -9 -10
leaf_value=1592.8104331525512 1593.2794884599489 1593.4009170273123 1592.9803220415631 1593.2919910211508 1593.3365397173559 1592.733725832448 1593.4325384236295 1593.8806230274015 1593.9771678445677
leaf_weight=140 434 31 225 337 244 41 114 79 98
leaf_count=140 434 31 225 337 244 41 114 79 98
internal_value=1593.28 1593.4 1593.1 1593.17 1593.34 1593.23 1593.46 1593.62 1593.84
internal_weight=0 1041 702 562 912 475 437 193 129
internal_count=1743 1041 702 562 912 475 437 193 129
is_linear=0
shrinkage=1


Tree=1
num_leaves=10
num_cat=0
split_feature=15 0 46 0 30 30 46 31 46
split_gain=14725.1 8197.22 8364.45 7889.26 3709.97 3294.72 2950.73 2855.38 2788.5
threshold=108.50000000000001 1584.5000000000002 7368.9396305000009 1593.5000000000002 59.192639000000007 80.091961000000012 3451.5614945000002 25.112360000000006 9288.0248290000036
decision_type=2 2 2 2 2 2 2 2 2
left_child=3 5 6 4 -1 -2 -3 -6 -7
right_child=1 2 -4 -5 7 8 -8 -9 -10
leaf_value=-0.50390031310098793 -0.2017705826860636 0.049526095141967139 0.73843092593824733 0.039195697607899177 -0.099100195661690232 0.016453587446700443 0.34000051584039981 -0.38074688548152685 0.43011116027832036
leaf_weight=124 146 180 87 358 274 220 170 134 50
leaf_count=124 146 180 87 358 274 220 170 134 50
internal_value=0 0.148447 0.299676 -0.142275 -0.264393 -0.0104162 0.190614 -0.191602 0.0930568
internal_weight=0 853 437 890 532 416 350 408 270
internal_count=1743 853 437 890 532 416 350 408 270
is_linear=0
shrinkage=0.05


Tree=2
num_leaves=10
num_cat=0
split_feature=30 46 8 31 0 0 0 46 26
split_gain=13389.5 10752 5208.21 3930.42 3440.7 3377.95 3101.02 2990.44 2493.56
threshold=81.222961500000011 7864.549513500001 27.500000000000004 28.615080500000001 1559.5000000000002 1584.5000000000002 1592.5000000000002 3516.3429305000004 595.20000004768383
decision_type=2 2 2 2 2 2 2 2 2
left_child=3 2 6 4 8 -3 -2 -8 -1
right_child=1 5 -4 -5 -6 -7 7 -9 -10
leaf_value=-0.8344296476015679 -0.025069868014718791 0.23437081555215022 -0.34355358624354354 -0.41943963180626592 -0.055135803828189472 0.65953944875643811 0.055001263807443058 0.31986313581188353 -0.19548547614265133
leaf_weight=26 481 96 86 155 322 91 275 174 37
leaf_count=26 481 96 86 155 322 91 275 174 37
internal_value=0 0.0928471 0.0287178 -0.206843 -0.121252 0.441271 0.0631429 0.157643 -0.459177
internal_weight=0 1203 1016 540 385 187 930 449 63
internal_count=1743 1203 1016 540 385 187 930 449 63
is_linear=0
shrinkage=0.05


Tree=3
num_leaves=10
num_cat=0
split_feature=15 46 0 0 0 6 46 3 0
split_gain=12894.7 6943.5 6656.95 5154.54 4379.39 3203.29 2822.13 2638.31 2930.99
threshold=108.50000000000001 8546.0687095000012 1593.5000000000002 1592.5000000000002 1550.5000000000002 1.0000000180025095e-35 3137.9000135000001 29.500000000000004 1621.5000000000002
decision_type=2 2 2 2 2 2 2 2 2
left_child=2 3 5 -2 -3 -1 -5 8 -4
right_child=1 4 7 6 -6 -7 -8 -9 -10
leaf_value=-0.31152977560041023 -0.027220356480942832 -0.18860221125862817 -0.0082090274132497146 0.06621185006006905 0.57929220582757679 -0.017977937140191594 0.39688727551323622 -0.44169435187208433 0.34720966259638475
leaf_weight=412 450 22 256 115 119 120 147 27 75
leaf_count=412 450 22 256 115 119 120 147 27 75
internal_value=0 0.138915 -0.133139 0.0754321 0.459479 -0.245315 0.251743 0.0335572 0.0723239
internal_weight=0 853 890 712 141 532 262 358 331
internal_count=1743 853 890 712 141 532 262 358 331
is_linear=0
shrinkage=0.05


Tree=4
num_leaves=10
num_cat=0
split_feature=15 0 46 0 30 31 30 46 46
split_gain=11637.5 6443.67 6504.14 6016.23 3557.83 2915.57 2651.53 2336.35 2075.32
threshold=108.50000000000001 1584.5000000000002 7368.9396305000009 1598.5000000000002 59.192639000000007 25.112360000000006 80.091961000000012 3451.5614945000002 9288.0248290000036
decision_type=2 2 2 2 2 2 2 2 2
left_child=3 6 7 4 -1 -6 -2 -3 -8
right_child=1 2 -4 -5 5 -7 8 -9 -10
leaf_value=-0.44355984831979473 -0.18054402392127947 0.04433482403556506 0.65294991134740843 0.061466194209384012 -0.067739819886952921 -0.33761882371429741 0.017859066731550476 0.30280588114469809 0.37471941170096401
leaf_weight=134 146 180 87 288 323 145 220 170 50
leaf_count=134 146 180 87 288 323 145 220 170 50
internal_value=0 0.131969 0.26605 -0.126483 -0.216398 -0.151356 -0.00888092 0.169878 0.0839443
internal_weight=0 853 437 890 602 468 416 350 270
internal_count=1743 853 437 890 602 468 416 350 270
is_linear=0
shrinkage=0.05


Tree=5
num_leaves=10
num_cat=0
split_feature=30 46 31 31 0 0 0 8 46
split_gain=10599 8458.49 4719.92 3351.98 3325.97 2956.6 2703.48 2416.13 2200.58
threshold=81.222961500000011 7864.549513500001 70.137600000000006 28.615080500000001 1592.5000000000002 1559.5000000000002 1584.5000000000002 27.500000000000004 3516.3429305000004
decision_type=2 2 2 2 2 2 2 2 2
left_child=3 2 4 5 7 -1 -3 -2 -6
right_child=1 6 -4 -5 8 -7 -8 -9 -10
leaf_value=-0.4182398736949951 0.0019325460587114496 0.20654807290993632 -0.35061070218488766 -0.3803610050389844 0.065962135933188934 -0.043699439657817349 0.58690891241306786 -0.38247957342200811 0.29286335220412268
leaf_weight=63 446 96 77 155 272 322 91 45 176
leaf_count=63 446 96 77 155 272 322 91 45 176
internal_value=0 0.0826071 0.0257273 -0.18403 0.0565878 -0.104988 0.391643 -0.0332987 0.155102
internal_weight=0 1203 1016 540 939 385 187 491 448
internal_count=1743 1203 1016 540 939 385 187 491 448
is_linear=0
shrinkage=0.05


Tree=6
num_leaves=10
num_cat=0
split_feature=15 0 46 0 2 8 3 0 2
split_gain=10216.9 5521.05 6224.51 5087.82 2808.96 2704.79 2354.78 2595 2481.08
threshold=108.50000000000001 1568.5000000000002 7305.3514170000008 1593.5000000000002 79.50550155123679 1.0000000180025095e-35 29.500000000000004 1621.5000000000002 51.256527662441364
decision_type=2 2 2 2 2 2 2 2 2
left_child=3 -2 -3 5 -4 -1 7 -5 -9
right_child=1 2 4 6 -6 -7 -8 8 -10
leaf_value=-0.14691511221713835 -0.10178492487887446 0.11282123473716812 0.037478017860225275 -0.011931407466181555 0.59592664341887702 -0.39903294534428796 -0.42176871105200714 0.1005282460692081 0.69508471382515769
leaf_weight=385 206 504 28 256 115 147 27 47 28
leaf_count=385 206 504 28 256 115 147 27 47 28
internal_value=0 0.123652 0.195429 -0.118511 0.48658 -0.216579 0.0272207 0.0638452 0.322496
internal_weight=0 853 647 890 143 532 358 331 75
internal_count=1743 853 647 890 143 532 358 331 75
is_linear=0
shrinkage=0.05


Tree=7
num_leaves=10
num_cat=0
split_feature=15 0 46 0 2 30 3 0 2
split_gain=9235.79 5135.9 4773.79 4134.44 2720.45 2627.02 2451.26 2306.13 2482.51
threshold=146.00000000000003 1593.5000000000002 10298.886550000001 1583.5000000000002 108.40110072499459 59.192639000000007 29.500000000000004 1621.5000000000002 51.256527662441364
decision_type=2 2 2 2 2 2 2 2 2
left_child=1 5 3 -2 -5 -1 7 -3 -9
right_child=2 6 -4 4 -6 -7 -8 8 -10
leaf_value=-0.40214314153847791 -0.046067460040338556 2.8466156331564157e-05 0.47467240890553009 0.11828355607701678 0.4280463360089769 -0.14486128141528978 -0.41575137129319573 0.096035368453857364 0.67543285941255515
leaf_weight=130 342 267 86 298 93 419 28 51 29
leaf_count=130 342 267 86 298 93 419 28 51 29
internal_value=0 -0.108359 0.122251 0.0809028 0.191961 -0.205784 0.0342718 0.0705849 0.306067
internal_weight=0 924 819 733 391 549 375 347 80
internal_count=1743 924 819 733 391 549 375 347 80
is_linear=0
shrinkage=0.05


Tree=8
num_leaves=10
num_cat=0
split_feature=8 46 0 0 12 46 30 0 2
split_gain=8769.8 8164.56 4289.85 4150.04 3102.92 2558.34 2528.92 2164.08 1858.1
threshold=26.000000000000004 7562.2086400000007 1550.5000000000002 1546.5000000000002 176.50000000000003 5223.052192000001 64.142517000000012 1563.5000000000002 100.8845990401757
decision_type=2 2 2 2 2 2 2 2 2
left_child=1 3 -3 -1 6 -2 -5 -7 -9
right_child=5 2 -4 4 -6 7 -8 8 -10
leaf_value=-0.5686517488571905 -0.3751638494788887 -0.22379893172403864 0.43148451298785712 -0.35219627703098877 0.077294444194571543 -0.34283303893079947 -0.03415671981214969 -0.10026445012343557 0.38588139414787292
leaf_weight=31 167 29 180 76 770 51 352 57 30
leaf_count=31 167 29 180 76 770 51 352 57 30
internal_value=0 0.0516519 0.34056 0.0025211 0.017301 -0.243526 -0.090631 -0.0842255 0.067372
internal_weight=0 1438 209 1229 1198 305 428 138 87
internal_count=1743 1438 209 1229 1198 305 428 138 87
is_linear=0
shrinkage=0.05


Tree=9
num_leaves=10
num_cat=0
split_feature=30 46 0 31 31 2 0 0 0
split_gain=8064.8 6475.95 3742.52 3039.96 2782.54 2672.07 2418.22 2412.04 2084.63
threshold=81.222961500000011 6865.6861970000009 1616.5000000000002 70.137600000000006 28.615080500000001 97.981630815759345 1575.5000000000002 1559.5000000000002 1563.5000000000002
decision_type=2 2 2 2 2 2 2 2 2
left_child=4 3 5 6 7 -3 -2 -1 -7
right_child=1 2 -4 -5 -6 8 -8 -9 -10
leaf_value=-0.3714499667286873 -0.11010498151522584 0.07467371677160263 0.91607137843966491 -0.31115936658838217 -0.33940780409040955 0.014773131505801127 0.08334793499550798 -0.033155953506678805 0.52369553076542841
leaf_weight=63 214 125 22 68 155 26 659 322 89
leaf_count=63 214 125 22 68 155 26 659 322 89
internal_value=0 0.072058 0.291911 0.0108448 -0.160529 0.234697 0.0359265 -0.0885132 0.408635
internal_weight=0 1203 262 941 540 240 873 385 115
internal_count=1743 1203 262 941 540 240 873 385 115
is_linear=0
shrinkage=0.05


Tree=10
num_leaves=10
num_cat=0
split_feature=15 0 46 0 6 2 46 8 0
split_gain=7617.98 4192.61 4415.34 3863.84 2654.33 2361.74 2347.01 2149.83 2233.94
threshold=108.50000000000001 1583.5000000000002 3451.5614945000002 1564.5000000000002 22.000000000000004 110.4107502388796 4051.1540510000004 37.000000000000007 1547.5000000000002
decision_type=2 2 2 2 2 2 2 2 2
left_child=3 7 -3 -1 6 -4 -5 8 -2
right_child=1 2 5 4 -6 -7 -8 -9 -10
leaf_value=-0.36372210115927167 -0.31239945586675255 0.024618996681041411 0.24190535582833569 -0.20295637547278927 0.076229723267380367 0.56401950585016292 0.017171244820944533 -0.25987741334337583 0.090337790587448147
leaf_weight=122 39 185 181 337 242 83 189 71 294
leaf_count=122 39 185 181 337 242 83 189 71 294
internal_value=0 0.106773 0.211922 -0.102334 -0.0608116 0.343176 -0.123861 -0.010088 0.0431704
internal_weight=0 853 449 890 768 264 526 404 333
internal_count=1743 853 449 890 768 264 526 404 333
is_linear=0
shrinkage=0.05


Tree=11
num_leaves=10
num_cat=0
split_feature=8 46 0 0 12 46 30 14 0
split_gain=7104.42 6606.16 3397.78 3358.21 2482.8 2198.54 2129.92 1735.41 1670.24
threshold=26.000000000000004 7562.2086400000007 1547.5000000000002 1546.5000000000002 176.50000000000003 5223.052192000001 64.142517000000012 206.50000000000003 1563.5000000000002
decision_type=2 2 2 2 2 2 2 2 2
left_child=1 3 -3 -1 6 -2 -5 -4 -7
right_child=5 2 7 4 -6 8 -8 -9 -10
leaf_value=-0.51150622053011774 -0.34121772836960718 -0.25335839367471635 0.22992529480080856 -0.32100090608981097 0.069255800932530906 -0.29870506026142957 -0.029127188075323253 0.53631476543843748 0.061669571385130122
leaf_weight=31 167 24 95 76 770 51 352 90 87
leaf_count=31 167 24 95 76 770 51 352 90 87
internal_value=0 0.0464896 0.306367 0.00229572 0.0155911 -0.219187 -0.0809552 0.37898 -0.0715124
internal_weight=0 1438 209 1229 1198 305 428 185 138
internal_count=1743 1438 209 1229 1198 305 428 185 138
is_linear=0
shrinkage=0.05


Tree=12
num_leaves=10
num_cat=0
split_feature=30 46 0 31 2 31 0 2 0
split_gain=6477.35 4333.44 3211.36 2897.2 2254.06 2219.07 2178.71 2150.33 1621.82
threshold=91.002600000000015 6865.6861970000009 1616.5000000000002 28.615080500000001 97.981630815759345 70.137600000000006 1559.5000000000002 59.174836747832892 1575.5000000000002
decision_type=2 2 2 2 2 2 2 2 2
left_child=3 5 4 6 -3 8 -1 -8 -2
right_child=1 2 -4 -5 -6 -7 7 -9 -10
leaf_value=-0.30593058441740439 -0.08729856512917733 0.050374274288558153 0.842032945968888 -0.28574677437150131 0.37667996597056297 -0.27211979190124419 -0.17340979454834968 0.068761249619707573 0.085477538159539734
leaf_weight=74 176 110 22 191 102 59 137 277 595
leaf_count=74 176 110 22 191 102 59 137 277 595
internal_value=0 0.0769988 0.26704 -0.120658 0.20737 0.0234211 -0.0560433 -0.0113775 0.0460371
internal_weight=0 1064 234 679 212 830 488 414 771
internal_count=1743 1064 234 679 212 830 488 414 771
is_linear=0
shrinkage=0.05


Tree=13
num_leaves=10
num_cat=0
split_feature=15 30 0 31 46 0 6 14 46
split_gain=6260.89 3716.24 3497.43 3276.16 2995.55 2465.78 2217.97 1803.48 1738.55
threshold=106.50000000000001 150.17651350000003 1598.5000000000002 69.277519500000025 3746.4118150000008 1590.5000000000002 1.0000000180025095e-35 206.50000000000003 1723.0964120000001
decision_type=2 2 2 2 2 2 2 2 2
left_child=2 3 6 5 -3 -2 8 -7 -1
right_child=1 4 -4 -5 -6 7 -8 -9 -10
leaf_value=-0.49105090142156071 0.0075659685996624666 -0.04403760200618087 0.048774783049345384 -0.31308532077492335 0.48550129872746767 0.12586542044227061 0.007598149212418308 0.42925203225829389 -0.18340911682571923
leaf_weight=52 424 37 286 57 96 190 142 66 393
leaf_count=52 424 37 286 57 96 190 142 66 393
internal_value=0 0.0949263 -0.0946001 0.0510274 0.338186 0.0815486 -0.164456 0.204082 -0.219358
internal_weight=0 870 873 737 133 680 587 256 445
internal_count=1743 870 873 737 133 680 587 256 445
is_linear=0
shrinkage=0.05


Tree=14
num_leaves=10
num_cat=0
split_feature=8 46 0 0 0 2 46 31 46
split_gain=5780.66 5316.25 2881.14 2861.4 2101.61 2433.3 2153.85 1911.12 2088.13
threshold=26.000000000000004 7562.2086400000007 1547.5000000000002 1546.5000000000002 1598.5000000000002 64.186519801840504 3803.7399400000004 61.711000500000004 5223.052192000001
decision_type=2 2 2 2 2 2 2 2 2
left_child=1 3 -3 -1 6 -6 -5 8 -2
right_child=7 2 -4 4 5 -7 -8 -9 -10
leaf_value=-0.47198546364182425 -0.26311550028093744 -0.24035309000561633 0.34192920417247996 -0.11458854166293829 0.0021428152371663601 0.2473127133048339 0.051314651109131929 -0.45599928886212154 0.030605394582984582
leaf_weight=31 141 24 185 401 240 175 382 58 106
leaf_count=31 141 24 185 401 240 175 382 58 106
internal_value=0 0.0419354 0.275064 0.00229019 0.0145628 0.105528 -0.0336498 -0.197715 -0.137065
internal_weight=0 1438 209 1229 1198 415 783 305 247
internal_count=1743 1438 209 1229 1198 415 783 305 247
is_linear=0
shrinkage=0.05


Tree=15
num_leaves=10
num_cat=0
split_feature=15 30 0 31 46 0 30 3 0
split_gain=5453.76 3189.66 3012.47 2799.15 2603.94 2097.77 1870.13 1862.95 1897
threshold=106.50000000000001 150.17651350000003 1593.5000000000002 69.277519500000025 3746.4118150000008 1590.5000000000002 20.567040500000001 29.500000000000004 1621.5000000000002
decision_type=2 2 2 2 2 2 2 2 2
left_child=2 3 6 5 -3 -2 -1 8 -4
right_child=1 4 7 -5 -6 -7 -8 -9 -10
leaf_value=-0.54851147174835213 0.0078996448992874543 -0.042400737675976616 -0.0088370593499362948 -0.28863644290127255 0.45131229001951101 0.18915883048139223 -0.1417628878240858 -0.37562793255956084 0.2773527231961489
leaf_weight=30 424 37 254 57 96 256 487 27 75
leaf_count=30 424 37 254 57 96 256 487 27 75
internal_value=0 0.0885965 -0.0882921 0.0479265 0.313964 0.0761384 -0.165365 0.0236373 0.0564038
internal_weight=0 870 873 737 133 680 517 356 329
internal_count=1743 870 873 737 133 680 517 356 329
is_linear=0
shrinkage=0.05


Tree=16
num_leaves=10
num_cat=0
split_feature=12 30 0 46 3 31 0 31 46
split_gain=5114.76 4049.67 3098.7 2863.29 2230.28 1903.79 1744.97 2006.74 1270.04
threshold=308.50000000000006 81.222961500000011 1548.5000000000002 9545.1288050000021 29.500000000000004 55.11324350000001 1556.5000000000002 18.149040500000002 6303.3185410000015
decision_type=2 2 2 2 2 2 2 2 2
left_child=1 6 -2 4 -4 8 -1 -8 -3
right_child=2 5 3 -5 -6 -7 7 -9 -10
leaf_value=-0.46430575891357401 -0.26859352294355632 0.013155785948603883 0.17285658521251573 0.4407295284337468 -0.22850084703415635 -0.17938605092598925 -0.053994531153267127 -0.28972314030513274 0.18851786571426121
leaf_weight=46 40 643 257 90 40 112 251 141 123
leaf_count=46 40 643 257 90 40 112 251 141 123
internal_value=0 -0.0487888 0.150365 0.193669 0.118802 0.0131613 -0.172972 -0.138785 0.0413144
internal_weight=0 1316 427 387 297 878 438 392 766
internal_count=1743 1316 427 387 297 878 438 392 766
is_linear=0
shrinkage=0.05


Tree=17
num_leaves=10
num_cat=0
split_feature=8 46 0 2 46 21 30 31 26
split_gain=4747.59 4336.71 2704.11 2681.3 2696.62 1717.86 1709.89 1691.32 1615.96
threshold=26.000000000000004 9437.3818200000042 1578.5000000000002 110.4107502388796 1991.8031580000002 882.0499999523164 34.187399000000006 55.177721000000012 790.56666660308849
decision_type=2 2 2 2 2 2 2 2 2
left_child=1 2 6 -4 -5 8 -1 -8 -2
right_child=5 -3 3 4 -6 -7 7 -9 -10
leaf_value=-0.4904065744280815 -0.37486144266729282 0.3311321638331845 0.024160109038791195 -0.17184831140370205 0.36720984620162578 -0.041502248908464726 -0.025302394615212803 -0.32294479439543056 -0.034310922926912707
leaf_weight=25 127 116 736 29 116 130 361 55 48
leaf_count=25 127 116 736 29 116 130 361 55 48
internal_value=0 0.0380039 0.0122831 0.0628769 0.259398 -0.179179 -0.0887898 -0.0646542 -0.281453
internal_weight=0 1438 1322 881 145 305 441 416 175
internal_count=1743 1438 1322 881 145 305 441 416 175
is_linear=0
shrinkage=0.05


Tree=18
num_leaves=10
num_cat=0
split_feature=15 0 2 0 31 3 0 46 46
split_gain=4438.01 2707.56 3223.56 2542.66 2042.23 1792.28 1837.92 1443.79 1361.68
threshold=106.50000000000001 1568.5000000000002 108.40110072499459 1558.5000000000002 28.615080500000001 29.500000000000004 1621.5000000000002 3550.2718380000001 5223.052192000001
decision_type=2 2 2 2 2 2 2 2 2
left_child=3 -2 -3 -1 5 6 -5 -4 -6
right_child=1 2 7 4 8 -7 -8 -9 -10
leaf_value=-0.35400489470256225 -0.075476353500424975 0.063114554034441564 0.061273671929226371 -0.016048833165394582 -0.27095755735533439 -0.32502376345417849 0.26518427444565479 0.39456062709310452 0.015415820273859749
leaf_weight=77 212 482 43 485 146 41 66 133 58
leaf_count=77 212 482 43 485 146 41 66 133 58
internal_value=0 0.0799213 0.129989 -0.0796467 -0.053107 -0.00609374 0.0176379 0.313133 -0.189538
internal_weight=0 870 658 873 796 592 551 176 204
internal_count=1743 870 658 873 796 592 551 176 204
is_linear=0
shrinkage=0.05


Tree=19
num_leaves=10
num_cat=0
split_feature=31 46 0 3 0 2 0 0 8
split_gain=4144.89 3471.59 2179.53 2786.01 1920.74 1932.05 1907.94 1575.85 1444.87
threshold=30.084600500000004 6224.3680255000008 1568.5000000000002 29.500000000000004 1615.5000000000002 85.729855283263262 1593.5000000000002 1595.5000000000002 27.500000000000004
decision_type=2 2 2 2 2 2 2 2 2
left_child=1 6 -3 4 5 -4 8 -2 -1
right_child=7 2 3 -5 -6 -7 -8 -9 -10
leaf_value=-0.034932438274060028 -0.20354360369011479 -0.0076098760625101488 0.072779340744018553 -0.19204450855995048 0.77304470755837185 0.408803514844992 0.071966648896992988 0.031294349581003189 -0.27171616614670369
leaf_weight=498 288 106 70 29 22 110 451 95 74
leaf_count=498 288 106 70 29 22 110 451 95 74
internal_value=0 0.0409173 0.180101 0.266237 0.332029 0.278127 -0.00493293 -0.145294 -0.0655653
internal_weight=0 1360 337 231 202 180 1023 383 572
internal_count=1743 1360 337 231 202 180 1023 383 572
is_linear=0
shrinkage=0.05


Tree=20
num_leaves=10
num_cat=0
split_feature=12 30 0 46 3 31 0 31 0
split_gain=3924.11 3192.38 2494.91 2198.78 1800.84 1513.48 1399.26 1531.68 1349.81
threshold=308.50000000000006 81.222961500000011 1548.5000000000002 9545.1288050000021 29.500000000000004 90.103000500000022 1556.5000000000002 18.149040500000002 1575.5000000000002
decision_type=2 2 2 2 2 2 2 2 2
left_child=1 6 -2 4 -4 8 -1 -8 -3
right_child=2 5 3 -5 -6 -7 7 -9 -10
leaf_value=-0.41387523992554009 -0.24422561286017297 -0.081659384720633485 0.15352805475650017 0.38706415690067741 -0.2071245505474508 -0.25774747203959497 -0.048301480835177511 -0.25424594593809008 0.065271889443543077
leaf_weight=46 40 209 257 90 40 49 251 141 620
leaf_count=46 40 209 257 90 40 49 251 141 620
internal_value=0 -0.0427344 0.131706 0.170562 0.104955 0.0122689 -0.152992 -0.122378 0.0282289
internal_weight=0 1316 427 387 297 878 438 392 829
internal_count=1743 1316 427 387 297 878 438 392 829
is_linear=0
shrinkage=0.05


Tree=21
num_leaves=10
num_cat=0
split_feature=15 46 0 2 21 0 19 0 30
split_gain=3702.46 2774.5 2707.2 2207.37 2150.04 1720.42 1649.98 1551.13 1344.88
threshold=61.000000000000007 3828.0395805000003 1569.5000000000002 110.4107502388796 1.0000000180025095e-35 1613.5000000000002 832.33333337306988 1620.5000000000002 157.11227450000004
decision_type=2 2 2 2 2 2 2 2 2
left_child=5 4 -3 7 -2 -1 -7 -4 -5
right_child=1 2 3 8 -6 6 -8 -9 -10
leaf_value=-0.15971547661327279 -0.015815043422532135 -0.041032093077147794 0.072835584497215819 0.26969720960905152 -0.42167948467390881 0.22996377700629336 -0.25351026970148088 0.4136842134836558 0.68707099349602407
leaf_weight=404 482 216 341 120 35 60 25 37 23
leaf_count=404 482 216 341 120 35 60 25 37 23
internal_value=0 0.0455064 0.107797 0.1695 -0.0432914 -0.116697 0.0877655 0.106199 0.336827
internal_weight=0 1254 737 521 517 489 85 378 143
internal_count=1743 1254 737 521 517 489 85 378 143
is_linear=0
shrinkage=0.05


Tree=22
num_leaves=10
num_cat=0
split_feature=8 46 30 0 31 2 21 26 30
split_gain=3516.18 3286.45 2018.1 1856.66 1475.33 1440.19 1421.77 1479.92 1353.88
threshold=26.000000000000004 7562.2086400000007 41.581800500000007 1547.5000000000002 61.711000500000004 56.117725959180824 882.0499999523164 790.56666660308849 197.21519450000002
decision_type=2 2 2 2 2 2 2 2 2
left_child=1 2 5 -3 6 -1 7 -2 -4
right_child=4 3 8 -5 -6 -7 -8 -9 -10
leaf_value=-0.58986749635501345 -0.2931976656438014 -0.19775107273211082 0.010145925987198139 0.26967982580331534 -0.38113424438854748 -0.10862731830972545 0.040927566790465018 0.080501964581864219 0.3976422480914904
leaf_weight=22 109 24 1131 185 58 53 103 35 23
leaf_count=22 109 24 1131 185 58 53 103 35 23
internal_value=0 0.032706 0.00153497 0.216004 -0.154201 -0.249791 -0.100913 -0.202368 0.017869
internal_weight=0 1438 1229 209 305 75 247 144 1154
internal_count=1743 1438 1229 209 305 75 247 144 1154
is_linear=0
shrinkage=0.05


Tree=23
num_leaves=10
num_cat=0
split_feature=0 19 2 15 31 46 28 37 14
split_gain=3295.62 3271.49 2536.61 2160.02 1717.46 1304.07 1560.7 1715.44 1419.82
threshold=1598.5000000000002 757.87500000000011 64.186519801840504 61.000000000000007 60.239399000000013 5864.3085105 915.12500000000011 -548.89999997615803 204.50000000000003
decision_type=2 2 2 2 2 2 2 2 2
left_child=1 3 -2 -1 -5 6 7 -4 -7
right_child=2 -3 5 4 -6 8 -8 -9 -10
leaf_value=-0.19312043207249158 0.00018372231044552545 0.15171758568198937 0.030365321389029899 -0.0052969979041040324 -0.23830457398460969 0.12369919684715569 -0.15654700115323067 0.39123507421733678 0.55021339082717902
leaf_weight=297 275 180 63 652 90 32 35 69 50
leaf_count=297 275 180 63 652 90 32 35 69 50
internal_value=0 -0.0450768 0.104864 -0.0791702 -0.0335594 0.220474 0.140294 0.219002 0.383769
internal_weight=0 1219 524 1039 742 249 167 132 82
internal_count=1743 1219 524 1039 742 249 167 132 82
is_linear=0
shrinkage=0.05


Tree=24
num_leaves=10
num_cat=0
split_feature=31 46 3 0 0 12 0 30 0
split_gain=3074.49 2510.77 1745.68 2334.77 1480.76 1501.24 1451.78 1233.66 1208.92
threshold=30.084600500000004 6224.3680255000008 29.500000000000004 1615.5000000000002 1552.5000000000002 254.50000000000003 1593.5000000000002 20.567040500000001 1618.5000000000002
decision_type=2 2 2 2 2 2 2 2 2
left_child=1 6 3 4 -3 -6 7 -1 -2
right_child=8 2 -4 -5 5 -7 -8 -9 -10
leaf_value=-0.38654542242487278 -0.1491076833178506 -0.12266757977860315 -0.20392730553303995 0.68605232563885776 0.060233594055278922 0.31075137600914315 0.063327498566059862 -0.040298450793216534 0.204032477342452
leaf_weight=27 357 42 31 22 108 134 451 545 26
leaf_count=27 357 42 31 22 108 134 451 545 26
internal_value=0 0.0352401 0.153606 0.189827 0.151387 0.19895 -0.00375238 -0.0566423 -0.125135
internal_weight=0 1360 337 306 284 242 1023 572 383
internal_count=1743 1360 337 306 284 242 1023 572 383
is_linear=0
shrinkage=0.05


Tree=25
num_leaves=10
num_cat=0
split_feature=15 30 0 31 2 46 31 3 0
split_gain=2925.15 1882.53 1819.78 1766.37 1719.39 1713.53 1364.59 1610.6 1461.6
threshold=106.50000000000001 150.17651350000003 1558.5000000000002 69.277519500000025 146.79488707745793 3746.4118150000008 10.133759500000002 29.500000000000004 1633.5000000000002
decision_type=2 2 2 2 2 2 2 2 2
left_child=2 3 -1 -2 6 -3 7 8 -4
right_child=1 5 4 -5 -6 -7 -8 -9 -10
leaf_value=-0.29676650164576318 0.05605118345243254 -0.051062592561986003 -0.007762237108584976 -0.23371829463724506 0.31114097368536575 0.34943957033877576 -0.15022622548771658 -0.34690745442428372 0.36477717661431863
leaf_weight=77 680 37 441 57 33 96 261 33 28
leaf_count=77 680 37 441 57 33 96 261 33 28
internal_value=0 0.0648848 -0.0646618 0.0336402 -0.0422095 0.238022 -0.057492 -0.00927755 0.0144789
internal_weight=0 870 873 737 796 133 763 502 469
internal_count=1743 870 873 737 796 133 763 502 469
is_linear=0
shrinkage=0.05


Tree=26
num_leaves=10
num_cat=0
split_feature=46 8 30 2 0 46 0 15 6
split_gain=2792.19 2989.64 1898.86 1802.31 1287.26 1175.74 1249.27 1162.19 1216.72
threshold=9545.1288050000021 26.000000000000004 68.254678000000013 108.88296016981754 1553.5000000000002 1991.8031580000002 1579.5000000000002 182.00000000000003 67.500000000000014
decision_type=2 2 2 2 2 2 2 2 2
left_child=1 2 4 -4 -1 -5 -7 -8 -9
right_child=-2 -3 3 5 -6 6 7 8 -10
leaf_value=-0.4939668953507429 0.19769794649019101 -0.17741382298477759 0.0045648118725632467 -0.15327438631883036 -0.083304374060776246 0.06875130818706289 0.16433432366241491 0.28016905024133881 0.77327574400061916
leaf_weight=21 162 254 871 26 209 92 57 29 22
leaf_count=21 162 254 871 26 209 92 57 29 22
internal_value=0 -0.0202575 0.0098237 0.0372105 -0.1208 0.163027 0.204146 0.319482 0.492882
internal_weight=0 1581 1327 1097 230 226 200 108 51
internal_count=1743 1581 1327 1097 230 226 200 108 51
is_linear=0
shrinkage=0.05


Tree=27
num_leaves=10
num_cat=0
split_feature=26 0 3 46 2 46 0 30 31
split_gain=2610.41 2680.45 1850.46 2069.76 1747.6 1606.05 1574.51 1510.1 1330.81
threshold=669.72500002384197 1559.5000000000002 45.000000000000007 3828.0395805000003 108.40110072499459 9774.5710275000001 1594.5000000000002 147.19380200000003 22.122360500000003
decision_type=2 2 2 2 2 2 2 2 2
left_child=1 -1 3 6 5 -2 -3 -6 -5
right_child=4 2 -4 8 7 -7 -8 -9 -10
leaf_value=-0.29500043745063959 -0.011626283648854541 -0.14216266798374597 -0.39963430017232898 0.17027112994864199 0.12087989071041197 0.259955682971927 0.029635122256502822 0.45053012285913741 -0.097646142517934076
leaf_weight=105 506 305 32 193 201 61 237 42 61
leaf_count=105 506 305 32 193 201 61 237 42 61
internal_value=0 -0.0570134 -0.0268339 -0.011847 0.065671 0.0175915 -0.0670408 0.177856 0.105929
internal_weight=0 933 828 796 810 567 542 243 254
internal_count=1743 933 828 796 810 567 542 243 254
is_linear=0
shrinkage=0.05


Tree=28
num_leaves=10
num_cat=0
split_feature=8 46 0 2 0 0 46 30 46
split_gain=2482.65 2234.12 1660.79 1546.26 1915.91 1405.67 1365.48 1131.92 1124.62
threshold=26.000000000000004 7562.2086400000007 1546.5000000000002 64.186519801840504 1623.5000000000002 1547.5000000000002 1818.3441380000002 37.042200000000008 2332.4665855000003
decision_type=2 2 2 2 2 2 2 2 2
left_child=1 2 -1 7 6 -3 -5 -4 -2
right_child=8 5 3 4 -6 -7 -8 -9 -10
leaf_value=-0.35954410082870919 -0.33202647008001807 -0.18140325229614973 -0.39354111797486746 -0.16055008697470552 0.4293567130963008 0.22531501598052076 0.064120455229039086 -0.041145144262456412 -0.084039065916180974
leaf_weight=31 56 24 24 76 33 185 614 451 249
leaf_count=31 56 24 24 76 33 185 614 451 249
internal_value=0 0.0274821 0.00178162 0.0111315 0.0571742 0.178611 0.0393741 -0.0589504 -0.129571
internal_weight=0 1438 1229 1198 723 209 690 475 305
internal_count=1743 1438 1229 1198 723 209 690 475 305
is_linear=0
shrinkage=0.05


Tree=29
num_leaves=10
num_cat=0
split_feature=0 46 30 0 2 21 2 14 19
split_gain=2426.8 2555.05 2019.07 1900.12 2453.95 1616.71 1442.26 1223.69 1216.79
threshold=1598.5000000000002 3828.0395805000003 194.25587400000003 1568.5000000000002 110.4107502388796 1.0000000180025095e-35 64.186519801840504 206.50000000000003 1211.7380951642992
decision_type=2 2 2 2 2 2 2 2 2
left_child=1 5 6 -3 -5 -1 8 -8 -2
right_child=2 3 -4 4 -6 -7 7 -9 -10
leaf_value=-0.089956500285283431 0.022700968060115751 -0.077760129768053354 0.55882204083556475 0.01481624126588558 0.28226417046340213 -0.35232538677313752 0.083184878125694806 0.32974411055241548 -0.35772892677670587
leaf_weight=430 244 289 22 314 118 68 162 73 23
leaf_count=430 244 289 22 314 118 68 162 73 23
internal_value=0 -0.0386814 0.0899859 0.0214796 0.0878691 -0.125782 0.0694393 0.159776 -0.0100701
internal_weight=0 1219 524 721 432 498 502 235 267
internal_count=1743 1219 524 721 432 498 502 235 267
is_linear=0
shrinkage=0.05


Tree=30
num_leaves=10
num_cat=0
split_feature=31 3 46 0 2 30 46 14 0
split_gain=2260.3 2028.89 2156.71 2030.77 2371.38 1452.39 1450.67 1182.1 1080.26
threshold=30.084600500000004 53.000000000000007 3324.7885800000004 1568.5000000000002 84.881383022405103 49.600198500000012 7238.6742670000012 98.500000000000014 1613.5000000000002
decision_type=2 2 2 2 2 2 2 2 2
left_child=1 2 8 7 -5 -6 -7 -4 -1
right_child=-2 -3 3 4 5 6 -8 -9 -10
leaf_value=-0.074559131619067728 -0.10729379661055403 -0.45743632898444225 -0.38565694764256481 0.039186381417085664 0.65409011036157616 0.12524627158856569 0.37086768929235719 0.00058064469236917984 0.097250237925267172
leaf_weight=433 383 21 22 286 20 170 93 199 116
leaf_count=433 383 21 22 286 20 170 93 199 116
internal_value=0 0.0302158 0.0378638 0.090763 0.140723 0.243337 0.212101 -0.0378683 -0.038257
internal_weight=0 1360 1339 790 569 283 263 221 549
internal_count=1743 1360 1339 790 569 283 263 221 549
is_linear=0
shrinkage=0.05


Tree=31
num_leaves=10
num_cat=0
split_feature=0 3 46 6 26 2 21 0 0
split_gain=2150.27 1996.91 2255.57 1677.31 1708.82 1349.86 1095.49 1090.48 1083.51
threshold=1583.5000000000002 29.500000000000004 3324.7885800000004 1.0000000180025095e-35 669.72500002384197 84.427531985067048 1308.2142857313158 1559.5000000000002 1621.5000000000002
decision_type=2 2 2 2 2 2 2 2 2
left_child=3 2 -2 4 7 6 8 -1 -4
right_child=1 -3 5 -5 -6 -7 -8 -9 -10
leaf_value=-0.34503477028559282 -0.010119930471648613 -0.24250067256052388 0.05048680112257109 0.06283533066483353 -0.012490788715991944 0.23834510696268529 -0.28929187044501309 -0.12995418232503339 0.36597529719583693
leaf_weight=79 459 55 182 201 269 214 20 232 32
leaf_count=79 459 55 182 201 269 214 20 232 32
internal_value=0 0.0500387 0.0677781 -0.0616354 -0.104771 0.147589 0.0645896 -0.184589 0.0976627
internal_weight=0 962 907 781 580 448 234 311 214
internal_count=1743 962 907 781 580 448 234 311 214
is_linear=0
shrinkage=0.05


Tree=32
num_leaves=10
num_cat=0
split_feature=30 31 15 46 0 19 0 29 0
split_gain=2070.45 2206.6 1905.57 1462.03 1347.51 1012.19 1693.07 981.632 1119.12
threshold=208.21007550000004 67.179840000000013 61.000000000000007 6165.0552810000017 1615.5000000000002 1189.3500000238421 1622.5000000000002 -116.23333334922789 1568.5000000000002
decision_type=2 2 2 2 2 2 2 2 2
left_child=1 2 5 -4 7 6 -1 -5 -9
right_child=-2 -3 3 4 -6 -7 -8 8 -10
leaf_value=-0.096743551069981226 0.45174679541587831 -0.18525195115833148 0.0089530906112090056 -0.03414115534069833 0.4947160735726357 -0.42627815745770931 0.23862245068663646 0.017691465310479808 0.25220934441174142
leaf_weight=362 25 157 808 89 24 20 42 82 134
leaf_count=362 25 157 808 89 24 20 42 82 134
internal_value=0 -0.00657373 0.0113971 0.0451323 0.133986 -0.0790674 -0.0618788 0.105601 0.163179
internal_weight=0 1718 1561 1137 329 424 404 305 216
internal_count=1743 1718 1561 1137 329 424 404 305 216
is_linear=0
shrinkage=0.05


Tree=33
num_leaves=10
num_cat=0
split_feature=30 46 38 31 12 0 0 14 8
split_gain=1924.45 1739.77 1466.87 1284.28 1267.65 1199.9 1070.75 1016.88 851.957
threshold=81.222961500000011 8546.0687095000012 -984.58333337306965 101.47332050000001 312.50000000000006 1570.5000000000002 1566.5000000000002 196.50000000000003 27.500000000000004
decision_type=2 2 2 2 2 2 2 2 2
left_child=2 3 -1 8 6 -6 -4 -8 -2
right_child=1 -3 4 -5 5 -7 7 -9 -10
leaf_value=-0.48809552192687988 0.0363820179135717 0.19635943114554802 -0.24147695400565863 -0.28504935145378113 -0.084124588022347208 0.2755909854964334 8.5536894088579434e-05 -0.19744615712099606 -0.13261744991824445
leaf_weight=21 940 147 100 35 44 49 236 90 81
leaf_count=21 940 147 100 35 44 49 236 90 81
internal_value=0 0.0351997 -0.078417 0.0127655 -0.0618404 0.105403 -0.0983513 -0.0544478 0.0229746
internal_weight=0 1203 540 1056 519 93 426 326 1021
internal_count=1743 1203 540 1056 519 93 426 326 1021
is_linear=0
shrinkage=0.05


Tree=34
num_leaves=10
num_cat=0
split_feature=0 6 2 30 2 45 0 14 46
split_gain=1846.63 2002.57 1755.42 1636.71 1126.3 1132.63 1108.55 1013.07 985.165
threshold=1598.5000000000002 1.0000000180025095e-35 58.209011735490641 194.25587400000003 64.186519801840504 15.174990448350002 1563.5000000000002 206.50000000000003 3964.8643200000006
decision_type=2 2 2 2 2 2 2 2 2
left_child=1 2 -1 4 5 -2 -4 -6 -8
right_child=3 -3 6 -5 7 -7 8 -9 -10
leaf_value=-0.21272632931282776 0.037333176505370914 0.064862543546713031 -0.14473925581040623 0.50061063278805129 0.070138984848457722 -0.23306833359789342 -0.081043291530329714 0.29447754999137904 0.061506304689502023
leaf_weight=183 220 362 179 22 162 47 212 73 283
leaf_count=183 220 362 179 22 162 47 212 73 283
internal_value=0 -0.0337423 -0.0753934 0.078496 0.0599969 -0.0102656 -0.0381057 0.139827 0.00045476
internal_weight=0 1219 857 524 502 267 674 235 495
internal_count=1743 1219 857 524 502 267 674 235 495
is_linear=0
shrinkage=0.05


Tree=35
num_leaves=10
num_cat=0
split_feature=30 31 15 0 46 15 19 0 46
split_gain=1709.3 1844.84 1607.11 1464.38 1078.41 957.43 941.343 2039.67 869.879
threshold=208.21007550000004 67.179840000000013 116.50000000000001 1550.5000000000002 10603.185771500002 209.50000000000003 1211.7380951642992 1636.5000000000002 2030.4718860000003
decision_type=2 2 2 2 2 2 2 2 2
left_child=1 2 3 -1 5 -4 7 8 -5
right_child=-2 -3 4 6 -6 -7 -8 -9 -10
leaf_value=-0.38223737378915157 0.41046073037385944 -0.16934953264085351 0.067377658059619844 -0.12141835863978878 0.2461163986577756 -0.09707512304168911 -0.27208002463385866 0.46054787452925333 0.0049204772073690867
leaf_weight=30 25 157 594 185 72 104 37 22 517
leaf_count=30 25 157 594 185 72 104 37 22 517
internal_value=0 -0.00597294 0.0104589 -0.0395961 0.0618791 0.0428747 -0.0260886 -0.0135172 -0.0283739
internal_weight=0 1718 1561 791 770 698 761 724 702
internal_count=1743 1718 1561 791 770 698 761 724 702
is_linear=0
shrinkage=0.05


Tree=36
num_leaves=10
num_cat=0
split_feature=0 46 30 0 2 21 2 45 28
split_gain=1639.63 1854.89 1385.1 1359.52 1409.54 1248.1 994.103 1059.7 965.088
threshold=1598.5000000000002 3828.0395805000003 194.25587400000003 1546.5000000000002 108.40110072499459 1.0000000180025095e-35 64.186519801840504 9.939765096150003 904.83333337306988
decision_type=2 2 2 2 2 2 2 2 2
left_child=1 5 6 -3 -5 -1 7 -2 -8
right_child=2 3 -4 4 -6 -7 8 -9 -10
leaf_value=-0.074530636672428693 0.085100973415822581 -0.19682924594504364 0.46228166529908776 -0.009304411959431139 0.14765807500206182 -0.3050567489117384 0.19460136280970319 -0.11443569338806565 -0.03191845301467066
leaf_weight=430 141 66 22 444 211 68 170 126 65
leaf_count=430 141 66 22 444 211 68 170 126 65
internal_value=0 -0.031795 0.0739658 0.0194646 0.0412591 -0.106008 0.056948 -0.0090624 0.131947
internal_weight=0 1219 524 721 655 498 502 267 235
internal_count=1743 1219 524 721 655 498 502 267 235
is_linear=0
shrinkage=0.05


Tree=37
num_leaves=10
num_cat=0
split_feature=0 3 46 26 0 46 2 29 29
split_gain=1537.68 1724.16 1658.36 1274.58 1171.68 1408.19 1062.73 1005.34 898.462
threshold=1583.5000000000002 29.500000000000004 3324.7885800000004 557.28333342075359 1548.5000000000002 3047.8630750000007 110.4107502388796 -327.79166662693018 -41.216666579246514
decision_type=2 2 2 2 2 2 2 2 2
left_child=3 2 -2 4 -1 -6 -4 -5 -8
right_child=1 -3 6 7 5 -7 8 -9 -10
leaf_value=-0.42912380027359931 -0.007995936906062602 -0.22951263927600604 0.083565134816228862 -0.28630959694939001 -0.24234377975161703 -0.018486921722286578 0.081732841119879773 0.023237210239889661 0.37669830793765058
leaf_weight=29 459 55 339 28 108 201 42 415 67
leaf_count=29 459 55 339 28 108 201 42 415 67
internal_value=0 0.0423148 0.0587982 -0.0521214 -0.125247 -0.0967282 0.127232 0.00367218 0.263042
internal_weight=0 962 907 781 338 309 448 443 109
internal_count=1743 962 907 781 338 309 448 443 109
is_linear=0
shrinkage=0.05


Tree=38
num_leaves=10
num_cat=0
split_feature=30 46 38 31 12 0 0 14 46
split_gain=1480.63 1349.61 1334.7 1065.31 990.458 972.291 862.598 884.828 796.133
threshold=81.222961500000011 8546.0687095000012 -984.58333337306965 101.47332050000001 312.50000000000006 1570.5000000000002 1566.5000000000002 196.50000000000003 6047.1114615000015
decision_type=2 2 2 2 2 2 2 2 2
left_child=2 3 -1 -2 6 -6 -4 -8 -7
right_child=1 -3 4 -5 5 8 7 -9 -10
leaf_value=-0.45956865605853853 0.020414159656971218 0.17281849898245871 -0.21370703922957182 -0.26012458096657481 -0.075746768188070177 0.073519326746463776 0.0050312000946378561 -0.17922880490620932 0.48077983813626429
leaf_weight=21 1021 147 100 35 44 28 236 90 21
leaf_count=21 1021 147 100 35 44 28 236 90 21
internal_value=0 0.0308752 -0.068783 0.011116 -0.0529709 0.0948609 -0.085244 -0.0458381 0.24806
internal_weight=0 1203 540 1056 519 93 426 326 49
internal_count=1743 1203 540 1056 519 93 426 326 49
is_linear=0
shrinkage=0.05


Tree=39
num_leaves=10
num_cat=0
split_feature=8 0 46 3 0 14 28 29 31
split_gain=1401.6 1352.11 1659.87 1785.1 1155.26 1040.47 1041.6 909.276 899.593
threshold=26.000000000000004 1547.5000000000002 3324.7885800000004 29.500000000000004 1620.5000000000002 201.50000000000003 1035.7749999761584 -130.66666662693021 61.711000500000004
decision_type=2 2 2 2 2 2 2 2 2
left_child=1 -1 -3 4 5 6 -4 -6 -2
right_child=8 2 3 -5 7 -7 -8 -9 -10
leaf_value=-0.21799738313022413 -0.055745031799826976 -0.033348412770434654 0.056573483874902221 -0.21800617108820008 0.054870369888487314 0.16628456352290844 -0.23491408709775319 0.47103802343564372 -0.27456175595008098
leaf_weight=57 247 586 430 48 21 228 33 35 58
leaf_count=57 247 586 430 48 21 228 33 35 58
internal_value=0 0.0206492 0.0304992 0.0775618 0.0965541 0.0788528 0.0357979 0.314975 -0.0973561
internal_weight=0 1438 1381 795 747 691 463 56 305
internal_count=1743 1438 1381 795 747 691 463 56 305
is_linear=0
shrinkage=0.05


Tree=40
num_leaves=10
num_cat=0
split_feature=30 20 46 0 2 31 38 29 0
split_gain=1346.68 1676.99 1437.42 1570.2 1374.3 1367.31 1280.66 907.064 837.389
threshold=208.21007550000004 964.45000004768383 3324.7885800000004 1568.5000000000002 110.4107502388796 81.251041499999999 -1044.9999999999998 -66.199999928474412 1588.5000000000002
decision_type=2 2 2 2 2 2 2 2 2
left_child=1 2 5 -4 6 8 -5 -6 -1
right_child=-2 -3 3 4 7 -7 -8 -9 -10
leaf_value=-0.108889553003484 0.36433066523075103 -0.46047531545162201 -0.056083608951825549 -0.21363093109558459 0.024377690126689583 -0.39244337436454052 0.0623187065114989 0.27316758985773876 0.0065894624277015538
leaf_weight=269 25 20 312 46 52 29 489 124 377
leaf_count=269 25 20 312 46 52 29 489 124 377
internal_value=0 -0.00530167 5.96227e-05 0.0374283 0.0784631 -0.0565747 0.0385922 0.199661 -0.041497
internal_weight=0 1718 1698 1023 711 675 535 176 646
internal_count=1743 1718 1698 1023 711 675 535 176 646
is_linear=0
shrinkage=0.05


Tree=41
num_leaves=10
num_cat=0
split_feature=0 46 31 2 45 8 2 0 15
split_gain=1307.98 1474.49 1180.8 1115.42 1047.01 1009.36 895.551 835.321 811.025
threshold=1615.5000000000002 1832.9775650000001 30.084600500000004 99.998040741804047 7.5783665885000007 27.500000000000004 74.122196034257755 1574.5000000000002 202.50000000000003
decision_type=2 2 2 2 2 2 2 2 2
left_child=1 5 6 4 -2 -1 -3 -8 -9
right_child=3 2 -4 -5 -6 -7 7 8 -10
leaf_value=-0.092213280581044735 0.27260501539707183 -0.035874341499224742 -0.081245441443584587 0.44516462158897652 0.0058065222656662517 -0.39659039042890076 -0.0013618443907628247 0.056053902064692622 0.20680800399178981
leaf_weight=183 50 340 312 23 139 32 282 240 142
leaf_count=183 50 340 312 23 139 32 282 240 142
internal_value=0 -0.0161177 0.00371564 0.116397 0.0763881 -0.137516 0.0301179 0.0639091 0.112093
internal_weight=0 1531 1316 212 189 215 1004 664 382
internal_count=1743 1531 1316 212 189 215 1004 664 382
is_linear=0
shrinkage=0.05


Tree=42
num_leaves=10
num_cat=0
split_feature=3 0 15 2 45 46 8 0 26
split_gain=1301.44 1673.66 1443.39 1334.3 1216.5 856.83 831.564 733.413 923.87
threshold=45.000000000000007 1620.5000000000002 61.000000000000007 83.636414701374704 7.5783665885000007 5412.2527100000016 1.0000000180025095e-35 1568.5000000000002 796.26785719394695
decision_type=2 2 2 2 2 2 2 2 2
left_child=1 2 -1 4 -3 6 -4 -7 -9
right_child=-2 3 5 -5 -6 7 -8 8 -10
leaf_value=-0.087327711898833524 -0.2268722034380084 0.38279276498561277 0.0064854977544330592 0.5036677523851395 0.0099087969483703034 -0.015686618419001912 -0.17090739062106289 0.25340317706273791 0.062398328481636615
leaf_weight=410 61 29 616 25 89 144 74 92 203
leaf_count=410 61 29 616 25 89 144 74 92 203
internal_value=0 0.00822783 -0.00697554 0.17185 0.10155 0.0222046 -0.0125392 0.0768134 0.121966
internal_weight=0 1682 1539 143 118 1129 690 439 295
internal_count=1743 1682 1539 143 118 1129 690 439 295
is_linear=0
shrinkage=0.05


Tree=43
num_leaves=10
num_cat=0
split_feature=20 0 30 46 46 0 2 38 19
split_gain=1202.37 1558.88 1346.57 1331.83 1247.91 1002.67 1115.19 1121.81 1011.92
threshold=964.45000004768383 1615.5000000000002 78.75036200000001 1832.9775650000001 7305.3514170000008 1575.5000000000002 184.47919179541387 -1044.9999999999998 932.36666667461407
decision_type=2 2 2 2 2 2 2 2 2
left_child=1 3 -3 -1 -4 8 7 -7 -5
right_child=-2 2 4 5 -6 6 -8 -9 -10
leaf_value=-0.12814886364219494 -0.37605175801685881 0.52399746030569083 0.04278994114167109 -0.064197802135346871 0.43651531896675411 -0.20791799196766481 0.41234024427831173 0.049832041741006049 0.18831709847287384
leaf_weight=215 21 20 161 513 23 45 20 682 43
leaf_count=215 21 20 161 513 23 45 20 682 43
internal_value=0 0.004586 0.134358 -0.0128537 0.0920056 0.00617046 0.0440106 0.0338778 -0.0446688
internal_weight=0 1722 204 1518 184 1303 747 727 556
internal_count=1743 1722 204 1518 184 1303 747 727 556
is_linear=0
shrinkage=0.05


Tree=44
num_leaves=10
num_cat=0
split_feature=3 46 31 0 30 2 28 46 0
split_gain=1178.93 1414.18 1215.05 952.852 1036.7 985.641 924.24 897.956 922.156
threshold=45.000000000000007 9288.0248290000036 70.137600000000006 1622.5000000000002 20.567040500000001 51.256527662441364 1035.7749999761584 1683.0096440000002 1588.5000000000002
decision_type=2 2 2 2 2 2 2 2 2
left_child=1 2 3 4 -1 -5 7 -6 -9
right_child=-2 -3 -4 5 6 -7 -8 8 -10
leaf_value=-0.24708088558860297 -0.21593002965215777 0.14731466589018521 -0.15592295251904975 0.017797839766765227 -0.095586734420971986 0.32433097092839691 -0.17798788684017178 -0.0071415608469247343 0.091053115331410917
leaf_weight=43 61 164 126 61 164 46 67 623 388
leaf_count=43 61 164 126 61 164 46 67 623 388
internal_value=0 0.00783099 -0.00723839 0.00622013 -0.0057171 0.149578 0.00263929 0.0129389 0.0305434
internal_weight=0 1682 1518 1392 1285 107 1242 1175 1011
internal_count=1743 1682 1518 1392 1285 107 1242 1175 1011
is_linear=0
shrinkage=0.05


Tree=45
num_leaves=10
num_cat=0
split_feature=2 0 30 0 0 46 8 12 31
split_gain=1117.39 1242.55 1070.57 1020.86 985.889 954.044 917.574 748.345 733.048
threshold=58.562359886227348 1620.5000000000002 28.618199000000004 1589.5000000000002 1541.5000000000002 5449.0711460000011 105.50000000000001 433.50000000000006 81.251041499999999
decision_type=2 2 2 2 2 2 2 2 2
left_child=2 4 -1 -4 -2 6 7 -6 -5
right_child=1 -3 3 8 5 -7 -8 -9 -10
leaf_value=-0.3956631598265275 -0.20774151369308436 0.24385262501816596 -0.14146149788005019 0.029171103068533311 0.014345093642504381 0.079712080374765099 -0.24047270963589351 -0.22043837805589042 -0.28390468426048754
leaf_weight=23 48 62 179 287 593 453 42 36 20
leaf_count=23 48 62 179 287 593 453 42 36 20
internal_value=0 0.0257114 -0.0623337 -0.0465588 0.0141715 0.0236482 -0.0142012 0.000907566 0.00877529
internal_weight=0 1234 509 486 1172 1124 671 629 307
internal_count=1743 1234 509 486 1172 1124 671 629 307
is_linear=0
shrinkage=0.05


Tree=46
num_leaves=10
num_cat=0
split_feature=30 20 46 31 0 2 21 46 29
split_gain=1094.1 1392.02 1075.97 1157.32 1080.07 910.534 927.846 860.23 834.24
threshold=213.87599200000002 964.45000004768383 3408.5276075000002 81.251041499999999 1546.5000000000002 111.31630903133542 1468.8055555820467 11089.993617000002 -69.700000047683702
decision_type=2 2 2 2 2 2 2 2 2
left_child=1 2 3 -1 -4 6 7 -6 -7
right_child=-2 -3 4 -5 5 8 -8 -9 -10
leaf_value=-0.033480591800764091 0.36768713414669041 -0.41897549003362661 -0.15873349826399458 -0.35094036238268017 0.016282850019261243 -0.021512304645949516 -0.28173786351829766 0.29484830839752124 0.18147275707120764
leaf_weight=667 20 20 68 30 625 69 25 29 190
leaf_count=667 20 20 68 30 625 69 25 29 190
internal_value=0 -0.00426799 0.000602329 -0.0471446 0.0336834 0.0476326 0.0172076 0.0286351 0.127396
internal_weight=0 1723 1703 697 1006 938 679 654 259
internal_count=1743 1723 1703 697 1006 938 679 654 259
is_linear=0
shrinkage=0.05


Tree=47
num_leaves=10
num_cat=0
split_feature=16 0 15 0 19 46 14 45 46
split_gain=1043.08 1329.15 997.611 751.337 698.067 685.472 680.95 862.859 871.758
threshold=-48.975000023841851 1620.5000000000002 106.50000000000001 1550.5000000000002 1715.0000000000002 2030.4718860000003 164.00000000000003 6.4333845531500016 3765.4081915000002
decision_type=2 2 2 2 2 2 2 2 2
left_child=-1 2 3 -2 -4 -5 7 -3 -9
right_child=1 6 4 5 -6 -7 -8 8 -10
leaf_value=-0.25567214066783589 -0.26773217652697823 0.34186272916312399 0.024462980998002672 -0.12621455850971705 0.32367001129314305 -0.010736801586663621 0.34745598919689658 -0.11253157635219396 0.22593242198228838
leaf_weight=39 37 26 770 166 20 569 34 52 30
leaf_count=39 37 26 770 166 20 569 34 52 30
internal_value=0 0.00585165 -0.0074629 -0.0478846 0.0320378 -0.0368175 0.152312 0.0908774 0.0112967
internal_weight=0 1704 1562 772 790 735 142 108 82
internal_count=1743 1704 1562 772 790 735 142 108 82
is_linear=0
shrinkage=0.05


Tree=48
num_leaves=10
num_cat=0
split_feature=3 46 0 2 30 46 29 0 0
split_gain=1020.21 1131.71 1078.42 927.2 887.245 823.81 873.924 802.862 773.369
threshold=45.000000000000007 9288.0248290000036 1565.5000000000002 109.81491996364191 58.028879000000011 1991.8031580000002 -41.216666579246514 1605.5000000000002 1579.5000000000002
decision_type=2 2 2 2 2 2 2 2 2
left_child=1 2 4 -4 -1 -5 -7 -3 -8
right_child=-2 7 3 5 -6 6 8 -9 -10
leaf_value=-0.2746454812200933 -0.20086913284708241 0.087381815778236865 -0.0084479587706350664 -0.13071347062800531 -0.048994717099836896 -0.014506357764912537 0.080465213680872699 0.40597683750092983 0.31636665200716574
leaf_weight=58 61 141 1048 33 175 64 64 23 76
leaf_count=58 61 141 1048 33 175 64 64 23 76
internal_value=0 0.00728479 -0.00619584 0.0117496 -0.105165 0.101062 0.138555 0.132063 0.208526
internal_weight=0 1682 1518 1285 233 237 204 164 140
internal_count=1743 1682 1518 1285 233 237 204 164 140
is_linear=0
shrinkage=0.05


Tree=49
num_leaves=10
num_cat=0
split_feature=20 0 30 2 46 6 11 46 30
split_gain=987.913 1137.9 1270.76 1031.38 916.128 712.134 708.982 680.625 900.803
threshold=964.45000004768383 1615.5000000000002 78.75036200000001 58.209011735490641 7305.3514170000008 1.0000000180025095e-35 116.50000000000001 4051.1540510000004 25.055159500000006
decision_type=2 2 2 2 2 2 2 2 2
left_child=1 3 -3 5 -4 -1 7 -5 -9
right_child=-2 2 4 6 -6 -7 -8 8 -10
leaf_value=-0.1297164613930363 -0.34086912856215523 0.49354277849197392 0.031718479459006223 -0.029209051216672895 0.36906797380551049 0.014351201113927098 -0.2677907567809929 -0.2378035404934333 0.062402125803726172
leaf_weight=256 21 20 161 443 23 129 22 26 642
leaf_count=256 21 20 161 443 23 129 22 26 642
internal_value=0 0.00415694 0.11503 -0.010743 0.0738872 -0.0814444 0.0132818 0.0188476 0.0507175
internal_weight=0 1722 204 1518 184 385 1133 1111 668
internal_count=1743 1722 204 1518 184 385 1133 1111 668
is_linear=0
shrinkage=0.05


Tree=50
num_leaves=10
num_cat=0
split_feature=3 30 31 46 26 0 15 0 15
split_gain=922.267 1011.45 1032.03 954.495 1057.26 809.453 777.622 909.331 706.416
threshold=45.000000000000007 208.21007550000004 67.179840000000013 10397.339427500003 1671.1000000238421 1568.5000000000002 116.50000000000001 1550.5000000000002 209.50000000000003
decision_type=2 2 2 2 2 2 2 2 2
left_child=1 2 3 4 6 -5 7 -1 -8
right_child=-2 -3 -4 5 -6 -7 8 -9 -10
leaf_value=-0.31622148563082403 -0.19098431707405655 0.32919410249839226 -0.12235989359188948 -0.012067106086760759 -0.35657984822988514 0.28482290568022894 0.07052043377821883 -0.015145715602491403 -0.076259277109056722
leaf_weight=26 61 24 151 38 20 58 561 708 96
leaf_count=26 61 24 151 38 20 58 561 708 96
internal_value=0 0.0069263 0.00226139 0.0147483 0.00436892 0.167304 0.0095587 -0.0258105 0.0490732
internal_weight=0 1682 1658 1507 1411 96 1391 734 657
internal_count=1743 1682 1658 1507 1411 96 1391 734 657
is_linear=0
shrinkage=0.05


Tree=51
num_leaves=10
num_cat=0
split_feature=16 0 2 0 46 38 12 12 45
split_gain=892.806 1085.57 799.265 740.221 741.814 813.408 631.711 633.223 622.338
threshold=-48.975000023841851 1620.5000000000002 58.209011735490641 1541.5000000000002 5449.0711460000011 -761.7000000476836 433.50000000000006 165.50000000000003 7.5783665885000007
decision_type=2 2 2 2 2 2 2 2 2
left_child=-1 2 -2 -4 5 -5 7 -7 -3
right_child=1 8 3 4 -6 6 -8 -9 -10
leaf_value=-0.23653880956654369 -0.067477278627264797 0.33584546225686229 -0.17996876054304711 -0.24212428399583186 0.072163781208710545 -0.056958597263124272 -0.22163023763646683 0.051069095342969287 0.082458064278906534
leaf_weight=39 401 31 47 36 450 208 30 390 111
leaf_count=39 401 31 47 36 450 208 30 390 111
internal_value=0 0.00541374 -0.0066191 0.0144008 0.0226013 -0.0109877 0.00226218 0.0134942 0.137775
internal_weight=0 1704 1562 1161 1114 664 628 598 142
internal_count=1743 1704 1562 1161 1114 664 628 598 142
is_linear=0
shrinkage=0.05


Tree=52
num_leaves=10
num_cat=0
split_feature=20 0 30 6 2 30 46 28 37
split_gain=885.113 954.907 1555.85 1039.1 960.529 751.162 611.145 727.081 681.096
threshold=964.45000004768383 1598.5000000000002 45.02783800000001 1.0000000180025095e-35 58.209011735490641 194.25587400000003 5864.3085105 924.46666657924663 -604.90000009536732
decision_type=2 2 2 2 2 2 2 2 2
left_child=1 3 -3 4 -1 6 7 8 -4
right_child=-2 2 5 -5 -6 -7 -8 -9 -10
leaf_value=-0.15235873685822221 -0.32264694862422494 0.47245658744465224 -0.070096063205098688 0.050725276458884631 -0.022745176011069984 0.33523623780125666 0.14438491958564009 -0.17232037455989765 0.081891742421814934
leaf_weight=182 21 22 113 361 666 21 93 52 212
leaf_count=182 21 22 113 361 666 21 93 52 212
internal_value=0 0.00393472 0.0610942 -0.0203191 -0.0505632 0.0426625 0.0295901 0.00127198 0.0290468
internal_weight=0 1722 513 1209 848 491 470 377 325
internal_count=1743 1722 513 1209 848 491 470 377 325
is_linear=0
shrinkage=0.05


Tree=53
num_leaves=10
num_cat=0
split_feature=20 0 30 8 46 0 46 3 14
split_gain=798.814 893.215 856.991 842.533 773.365 692.421 766.349 641.993 594.51
threshold=964.45000004768383 1617.5000000000002 80.182442000000023 1.0000000180025095e-35 5223.052192000001 1547.5000000000002 3324.7885800000004 29.500000000000004 201.50000000000003
decision_type=2 2 2 2 2 2 2 2 2
left_child=1 3 -3 5 -5 -1 -7 8 -8
right_child=-2 2 -4 4 -6 6 7 -9 -10
leaf_value=-0.16239407088141888 -0.30651459945809273 0.40912119604292374 0.069395900274685118 -0.15843315602089308 0.0038331266892728984 -0.030930929300606192 0.028822850931770685 -0.14912382976985292 0.12899710819930643
leaf_weight=56 21 21 160 161 135 484 445 38 222
leaf_count=56 21 21 160 161 135 484 445 38 222
internal_value=0 0.00373798 0.108812 -0.00860356 -0.0844266 0.00942344 0.0175158 0.0507756 0.0621642
internal_weight=0 1722 181 1541 296 1245 1189 705 667
internal_count=1743 1722 181 1541 296 1245 1189 705 667
is_linear=0
shrinkage=0.05


Tree=54
num_leaves=10
num_cat=0
split_feature=16 0 15 19 37 38 46 37 19
split_gain=779.586 871.71 685.423 605.207 710.143 574.521 563.659 683.87 545.153
threshold=-48.975000023841851 1620.5000000000002 51.500000000000007 1715.0000000000002 -1193.41666662693 -479.25714278221125 1356.2064155000003 -966.72500002384174 1427.4821428060534
decision_type=2 2 2 2 2 2 2 2 2
left_child=-1 2 5 4 -4 -2 -3 -8 -6
right_child=1 6 3 -5 8 -7 7 -9 -10
leaf_value=-0.22103236864010492 -0.2320815278979188 -0.027485383137367494 -0.20333396234353518 0.28662352375686168 0.021336800067341059 -0.040798654007101129 -0.042987711975971864 0.26365878490606942 -0.24212242498993874
leaf_weight=39 44 43 38 20 1076 364 24 75 20
leaf_count=39 44 43 38 20 1076 364 24 75 20
internal_value=0 0.00505884 -0.0057238 0.0139703 0.0091616 -0.0614272 0.123668 0.18932 0.0165291
internal_weight=0 1704 1562 1154 1134 408 142 99 1096
internal_count=1743 1704 1562 1154 1134 408 142 99 1096
is_linear=0
shrinkage=0.05


Tree=55
num_leaves=10
num_cat=0
split_feature=3 46 31 26 0 46 19 0 19
split_gain=760.022 869.216 887.978 838.227 834.086 890.15 830.135 742.318 1290.87
threshold=53.000000000000007 9545.1288050000021 100.00587850000001 1671.1000000238421 1578.5000000000002 1356.2064155000003 932.36666667461407 1622.5000000000002 930.50000000000011
decision_type=2 2 2 2 2 2 2 2 2
left_child=1 2 3 4 6 -6 -1 -7 -9
right_child=-2 -3 -4 -5 5 7 -8 8 -10
leaf_value=-0.061975061427238548 -0.2855188207781833 0.11596797895113564 -0.19607057393528524 -0.31359653558049883 -0.073909336607331885 0.039550038567586827 0.19700976847247645 0.38914033763292361 -0.056097420001471492
leaf_weight=496 23 157 60 21 163 722 33 41 27
leaf_count=496 23 157 60 21 163 722 33 41 27
internal_value=0 0.00381798 -0.00744724 8.26308e-05 0.00452748 0.0324743 -0.0458191 0.0544244 0.212355
internal_weight=0 1720 1563 1503 1482 953 529 790 68
internal_count=1743 1720 1563 1503 1482 953 529 790 68
is_linear=0
shrinkage=0.05


Tree=56
num_leaves=10
num_cat=0
split_feature=30 20 46 45 0 0 21 46 26
split_gain=746.619 958.683 712.542 1001.29 779.251 733.319 866.11 731.886 835.717
threshold=213.87599200000002 964.45000004768383 3408.5276075000002 9.3450608029000026 1564.5000000000002 1565.5000000000002 1468.8055555820467 11089.993617000002 1332.33333337307
decision_type=2 2 2 2 2 2 2 2 2
left_child=1 2 3 4 -1 -4 7 8 -7
right_child=-2 -3 5 -5 -6 6 -8 -9 -10
leaf_value=-0.26005257987976077 0.30373751521110537 -0.34768320195376878 -0.045823371989981217 -0.11169260840188699 0.027839994260510453 0.071117426480865109 -0.19054966184709754 0.26669090283768521 -0.10697199696221867
leaf_weight=25 20 20 255 279 393 600 35 42 74
leaf_count=25 20 20 255 279 393 600 35 42 74
internal_value=0 -0.00352568 0.000516097 -0.0383392 0.0106215 0.0274367 0.052312 0.0641837 0.0515646
internal_weight=0 1723 1703 697 418 1006 751 716 674
internal_count=1743 1723 1703 697 418 1006 751 716 674
is_linear=0
shrinkage=0.05


Tree=57
num_leaves=10
num_cat=0
split_feature=3 31 46 26 30 26 2 45 0
split_gain=699.561 771.144 790.187 816.994 753.013 734.031 730.082 709.232 654.322
threshold=45.000000000000007 100.00587850000001 10855.5153515 1686.3833333253863 91.002600000000015 876.00000000000011 184.47919179541387 2.2765712332000008 1550.5000000000002
decision_type=2 2 2 2 2 2 2 2 2
left_child=1 2 3 4 8 -4 7 -6 -1
right_child=-2 -3 5 -5 6 -7 -8 -9 -10
leaf_value=-0.23085280338302258 -0.16633441162402515 -0.15523389643976387 0.40813958204605366 -0.31283934384584433 0.31717807547677135 0.07587594454834129 0.32156466586007315 0.023147190406994124 -0.021284617737146183
leaf_weight=40 61 71 22 20 21 68 22 877 541
leaf_count=40 61 71 22 20 21 68 22 877 541
internal_value=0 0.00603234 0.0131397 0.00462155 0.00885154 0.157096 0.0369948 0.0300232 -0.0357127
internal_weight=0 1682 1611 1521 1501 90 920 898 581
internal_count=1743 1682 1611 1521 1501 90 920 898 581
is_linear=0
shrinkage=0.05


Tree=58
num_leaves=10
num_cat=0
split_feature=2 30 0 0 0 31 0 46 38
split_gain=675.626 847.29 744.429 980.216 704.41 568.836 541.428 597.892 714.359
threshold=58.562359886227348 28.618199000000004 1622.5000000000002 1630.5000000000002 1589.5000000000002 81.251041499999999 1541.5000000000002 5170.0158035000013 -911.88095235824574
decision_type=2 2 2 2 2 2 2 2 2
left_child=1 -1 6 -4 -3 -6 -2 8 -8
right_child=2 4 3 -5 5 -7 7 -9 -10
leaf_value=-0.34500868495391762 -0.15231327856890858 -0.11326917750245824 0.42975490057468413 -0.022535810781561812 0.029494831840692654 -0.24629402842372655 -0.29238577498631046 0.060870487045626212 -0.0025142684003317422
leaf_weight=23 48 179 25 23 287 20 22 489 627
leaf_count=23 48 179 25 23 287 20 22 489 627
internal_value=0 -0.04847 0.0199929 0.213032 -0.0344363 0.0115281 0.0121802 0.0191184 -0.0123404
internal_weight=0 509 1234 48 486 307 1186 1138 649
internal_count=1743 509 1234 48 486 307 1186 1138 649
is_linear=0
shrinkage=0.05


Tree=59
num_leaves=10
num_cat=0
split_feature=30 20 31 46 0 37 46 30 26
split_gain=670.222 865.625 673.168 614.64 769.562 737.937 916.879 674.974 615.73
threshold=208.21007550000004 964.45000004768383 67.179840000000013 880.22655900000007 1575.5000000000002 -269.88333332538599 10855.5153515 34.187399000000006 669.72500002384197
decision_type=2 2 2 2 2 2 2 2 2
left_child=1 2 3 -1 8 6 -6 -7 -5
right_child=-2 -3 -4 4 5 7 -8 -9 -10
leaf_value=-0.11999142304019526 0.25702310395240785 -0.33076226081699134 -0.10102362392097713 -0.080244087381288409 -0.0031373254390376984 0.35018669867515567 0.33337138995883014 0.081135624538081277 0.030565554723311385
leaf_weight=86 25 20 150 288 561 25 21 345 222
leaf_count=86 25 20 150 288 561 25 21 345 222
internal_value=0 -0.00374015 0.000111701 0.00991164 0.017553 0.0441042 0.00900474 0.0993148 -0.0320093
internal_weight=0 1718 1698 1548 1462 952 582 370 510
internal_count=1743 1718 1698 1548 1462 952 582 370 510
is_linear=0
shrinkage=0.05


Tree=60
num_leaves=10
num_cat=0
split_feature=3 31 0 30 2 45 46 8 14
split_gain=647.724 698.912 773.763 798.804 768.126 785.858 695.373 645.521 625.547
threshold=53.000000000000007 133.18656100000001 1620.5000000000002 20.567040500000001 83.636414701374704 6.4333845531500016 1707.626332 74.000000000000014 139.50000000000003
decision_type=2 2 2 2 2 2 2 2 2
left_child=1 2 3 8 5 -4 7 -5 -1
right_child=-2 -3 4 6 -6 -7 -8 -9 -10
leaf_value=-0.40559869231212708 -0.26358260765023855 -0.25374407378526836 0.30814524327333159 -0.05446260448836613 0.37052441728115082 -0.0031714976117338829 0.016670199329163634 -0.35544547997415066 -0.054399642517091708
leaf_weight=21 23 26 26 163 25 92 1315 20 32
leaf_count=21 23 26 26 163 25 92 1315 20 32
internal_value=0 0.00352465 0.00747329 -0.00278747 0.118763 0.0654237 0.00396195 -0.0873569 -0.193554
internal_weight=0 1720 1694 1551 143 118 1498 183 53
internal_count=1743 1720 1694 1551 143 118 1498 183 53
is_linear=0
shrinkage=0.05


Tree=61
num_leaves=10
num_cat=0
split_feature=16 0 19 2 28 2 45 21 29
split_gain=629.754 666.886 900.179 640.11 589.404 833.427 628.604 629.381 577.566
threshold=-48.975000023841851 1593.5000000000002 838.70000004768383 60.115859203975603 904.83333337306988 84.881383022405103 13.618164170750001 582.39999997615826 -151.02499997615811
decision_type=2 2 2 2 2 2 2 2 2
left_child=-1 2 3 -2 5 6 7 -3 -4
right_child=1 4 8 -5 -6 -7 -8 -9 -10
leaf_value=-0.19865942629866112 -0.11414993675470425 0.043633619631766839 -0.082204976491630083 -0.014707542428636953 -0.059531655839669545 0.17173606335052424 -0.087240744349180485 0.32163378528573294 0.16184732358995826
leaf_weight=39 208 273 32 729 111 140 89 22 100
leaf_count=39 208 273 32 729 111 140 89 22 100
internal_value=0 0.00454678 -0.0195611 -0.0367823 0.0451315 0.0673026 0.0292279 0.0643658 0.102683
internal_weight=0 1704 1069 937 635 524 384 295 132
internal_count=1743 1704 1069 937 635 524 384 295 132
is_linear=0
shrinkage=0.05


Tree=62
num_leaves=10
num_cat=0
split_feature=37 15 20 0 2 15 3 46 0
split_gain=608.216 625.592 637.937 676.979 648.703 493.019 484.825 502.206 745.744
threshold=-1521.22916662693 106.50000000000001 654.82500004768383 1636.5000000000002 134.96351153767515 210.50000000000003 40.000000000000007 3828.0395805000003 1566.5000000000002
decision_type=2 2 2 2 2 2 2 2 2
left_child=-1 2 3 4 -2 6 7 8 -3
right_child=1 5 -4 -5 -6 -7 -8 -9 -10
leaf_value=-0.26745891753761541 -0.041601448102904975 -0.2273062843949564 -0.29882735290697643 0.21342400521039964 0.12188759196098105 -0.064600669743644229 -0.16806387978792192 0.089720151232864531 0.032576268036075544
leaf_weight=21 752 31 21 30 66 111 25 434 252
leaf_count=21 752 31 21 30 66 111 25 434 252
internal_value=0 0.00326169 -0.0265965 -0.0198549 -0.0284104 0.03368 0.0483823 0.0559292 0.00410857
internal_weight=0 1722 869 848 818 853 742 717 283
internal_count=1743 1722 869 848 818 853 742 717 283
is_linear=0
shrinkage=0.05


Tree=63
num_leaves=10
num_cat=0
split_feature=30 20 38 19 0 46 29 30 2
split_gain=576.238 726.997 654.21 654.11 628.942 710.221 757.139 737.067 705.806
threshold=208.21007550000004 964.45000004768383 -999.52857148647297 1715.0000000000002 1575.5000000000002 1818.3441380000002 -18.124999999999996 184.34520300000003 108.40110072499459
decision_type=2 2 2 2 2 2 2 2 2
left_child=1 2 -1 4 -4 -6 -7 8 -8
right_child=-2 -3 3 -5 5 6 7 -9 -10
leaf_value=-0.13683917350304056 0.23832177048921588 -0.30316244640154766 -0.039039548212504382 0.2718360814711322 -0.046099754512354207 -0.015616749385170801 0.068544067198410635 -0.20984115868806841 0.21804502364154904
leaf_weight=83 25 20 566 23 253 278 375 20 100
leaf_count=83 25 20 566 23 253 278 375 20 100
internal_value=0 -0.00346801 6.19578e-05 0.00709774 0.00327301 0.026615 0.0504143 0.0874984 0.100018
internal_weight=0 1718 1698 1615 1592 1026 773 495 475
internal_count=1743 1718 1698 1615 1592 1026 773 495 475
is_linear=0
shrinkage=0.05


Tree=64
num_leaves=10
num_cat=0
split_feature=3 46 31 26 0 46 25 30 0
split_gain=569.37 606.708 666.21 699.528 636.769 612.013 660.327 573.252 565.969
threshold=53.000000000000007 8974.765523 10.133759500000002 1077.2500000000002 1578.5000000000002 1723.0964120000001 676.66666662693035 20.567040500000001 1605.5000000000002
decision_type=2 2 2 2 2 2 2 2 2
left_child=1 2 3 5 -4 -1 7 -7 -3
right_child=-2 8 4 -5 -6 6 -8 -9 -10
leaf_value=-0.053169922032550478 -0.24712633642813434 0.053734792181133452 -0.11900014785302948 -0.097101513897908526 -0.003874241562774855 -0.18250292534939946 -0.22653601089315045 0.065962544280926641 0.30594093077457868
leaf_weight=178 23 154 217 122 269 24 21 709 26
leaf_count=178 23 154 217 122 269 24 21 709 26
internal_value=0 0.0033046 -0.00684787 0.0154834 -0.0552782 0.0302209 0.0499073 0.0578272 0.0901646
internal_weight=0 1720 1540 1054 486 932 754 733 180
internal_count=1743 1720 1540 1054 486 932 754 733 180
is_linear=0
shrinkage=0.05


Tree=65
num_leaves=10
num_cat=0
split_feature=37 16 0 14 46 30 37 15 15
split_gain=568.571 563.65 653.406 761.462 673.692 665.044 591.94 524.874 571.047
threshold=-1521.22916662693 -48.975000023841851 1598.5000000000002 155.50000000000003 3828.0395805000003 25.055159500000006 -548.89999997615803 207.50000000000003 205.50000000000003
decision_type=2 2 2 2 2 2 2 2 2
left_child=-1 -2 4 6 -3 -6 -4 8 -7
right_child=1 2 3 -5 5 7 -8 -9 -10
leaf_value=-0.25859530685203419 -0.18476413892438781 -0.05785440288564582 -0.081251476103040787 0.14427715098525348 -0.22004209038402356 0.034616728516724753 0.059956008255143058 -0.087503132708781572 0.27002051709288799
leaf_weight=21 39 486 112 163 28 562 220 85 27
leaf_count=21 39 486 112 163 28 562 220 85 27
internal_value=0 0.0031536 0.0075082 0.0557724 -0.0126019 0.0187268 0.0123197 0.028646 0.0454077
internal_weight=0 1722 1683 495 1188 702 332 674 589
internal_count=1743 1722 1683 495 1188 702 332 674 589
is_linear=0
shrinkage=0.05


Tree=66
num_leaves=10
num_cat=0
split_feature=3 31 0 2 19 30 37 14 46
split_gain=518.882 598.164 651.442 672.208 642.12 613.227 586.045 548.372 538.402
threshold=53.000000000000007 133.18656100000001 1620.5000000000002 51.256527662441364 788.09999990463268 20.567040500000001 -502.37499999999994 138.50000000000003 1707.626332
decision_type=2 2 2 2 2 2 2 2 2
left_child=1 2 5 4 -4 7 -5 -1 -7
right_child=-2 -3 3 6 -6 8 -8 -9 -10
leaf_value=-0.37634305493906139 -0.23591510731949594 -0.2348501766888568 0.11637811740131483 0.086866500228643423 -0.19079194234477148 -0.077047024172656964 0.37728064772672953 -0.044545311949244049 0.014488740847924082
leaf_weight=20 23 26 46 38 27 183 32 33 1315
leaf_count=20 23 26 46 38 27 183 32 33 1315
internal_value=0 0.00315468 0.00680765 0.108923 0.00276727 -0.0026072 0.219627 -0.169752 0.00330647
internal_weight=0 1720 1694 143 73 1551 70 53 1498
internal_count=1743 1720 1694 143 73 1551 70 53 1498
is_linear=0
shrinkage=0.05


Tree=67
num_leaves=10
num_cat=0
split_feature=37 12 19 0 15 28 29 29 30
split_gain=513.08 532.474 688.882 918.013 570.81 579.912 915.866 969.927 691.9
threshold=-1521.22916662693 253.50000000000003 1347.20833337307 1636.5000000000002 210.50000000000003 285.29999995231634 309.70000004768377 -195.89999997615811 147.19380200000003
decision_type=2 2 2 2 2 2 2 2 2
left_child=-1 2 3 -2 5 -3 7 -7 -8
right_child=1 4 -4 -5 -6 6 8 -9 -10
leaf_value=-0.24565219600640595 -0.017982970181370676 -0.022513391267663489 -0.25345488265001526 0.27201762709633581 -0.075887462881986389 -0.095148016227518811 -0.080116466673151143 0.19310378622019539 0.22100213989615441
leaf_weight=21 1075 144 30 28 88 34 93 206 24
leaf_count=21 1075 144 30 28 88 34 93 206 24
internal_value=0 0.00299576 -0.0170511 -0.0106212 0.0415578 0.0621869 0.0963517 0.152268 -0.0183485
internal_weight=0 1722 1133 1103 589 501 357 240 117
internal_count=1743 1722 1133 1103 589 501 357 240 117
is_linear=0
shrinkage=0.05


Tree=68
num_leaves=10
num_cat=0
split_feature=30 20 38 19 19 0 46 45 21
split_gain=483.808 626.237 585.384 588.907 562.144 594.221 806.672 879.283 794.512
threshold=208.21007550000004 964.45000004768383 -999.52857148647297 1715.0000000000002 1444.8333332538607 1565.5000000000002 3408.5276075000002 9.3450608029000026 1412.321428537369
decision_type=2 2 2 2 2 2 2 2 2
left_child=1 2 -1 4 5 -4 7 -7 -8
right_child=-2 -3 3 -5 -6 6 8 -9 -10
leaf_value=-0.1294012375265719 0.21837331272661686 -0.28132938016206027 -0.058285364723875077 0.25795096120108729 -0.23210199570655821 0.029231891934431566 0.073376089522140614 -0.090170162745988838 -0.19903067188071355
leaf_weight=83 25 20 286 23 25 390 608 255 28
leaf_count=83 25 20 286 23 25 390 608 255 28
internal_value=0 -0.00317773 9.85013e-05 0.00675391 0.0031248 0.00687762 0.0214261 -0.0179736 0.0613833
internal_weight=0 1718 1698 1615 1592 1567 1281 645 636
internal_count=1743 1718 1698 1615 1592 1567 1281 645 636
is_linear=0
shrinkage=0.05


Tree=69
num_leaves=10
num_cat=0
split_feature=16 0 19 30 28 30 2 2 45
split_gain=477.088 505.349 688.196 589.23 598.64 567.084 534.821 498.178 487.089
threshold=-48.975000023841851 1593.5000000000002 838.70000004768383 35.123399500000012 904.83333337306988 145.13771850000003 60.115859203975603 85.729855283263262 13.618164170750001
decision_type=2 2 2 2 2 2 2 2 2
left_child=-1 2 6 -3 7 -6 -2 8 -5
right_child=1 3 -4 4 5 -7 -8 -9 -10
leaf_value=-0.1729112056346658 -0.10280512829150001 0.29352684860879724 0.089857301124103492 0.054190372268807879 -0.1595207448363383 0.079803027604755605 -0.011908286581114855 0.13659158400824351 -0.08323202739997082
leaf_weight=39 208 22 132 289 71 38 729 132 83
leaf_count=39 208 22 132 289 71 38 729 132 83
internal_value=0 0.00395747 -0.0170285 0.0392866 0.0301621 -0.0760868 -0.032086 0.0531406 0.0235289
internal_weight=0 1704 1069 635 613 109 937 504 372
internal_count=1743 1704 1069 635 613 109 937 504 372
is_linear=0
shrinkage=0.05


Tree=70
num_leaves=10
num_cat=0
split_feature=3 46 26 31 2 14 29 26 0
split_gain=479.998 535.647 583.273 644.976 611.583 768.126 706.031 645.418 591.2
threshold=53.000000000000007 9545.1288050000021 1671.1000000238421 67.179840000000013 135.9528716267987 304.50000000000006 -66.199999928474412 868.07142853736889 1593.5000000000002
decision_type=2 2 2 2 2 2 2 2 2
left_child=1 2 3 4 5 8 -6 -8 -1
right_child=-2 -3 -4 -5 6 -7 7 -9 -10
leaf_value=-0.027207636509601226 -0.22690350825938843 0.091073097473686679 -0.26754237782387508 -0.10663970095312431 -0.096612650758641616 -0.28986928398194522 0.087594023698986306 0.34945781677961352 0.043074270272590885
leaf_weight=726 23 157 21 135 34 23 82 33 509
leaf_count=726 23 157 21 135 34 23 82 33 509
internal_value=0 0.00303417 -0.00580915 -0.00224469 0.00777189 -0.00357308 0.103557 0.162738 0.00175875
internal_weight=0 1720 1563 1542 1407 1258 149 115 1235
internal_count=1743 1720 1563 1542 1407 1258 149 115 1235
is_linear=0
shrinkage=0.05


Tree=71
num_leaves=10
num_cat=0
split_feature=37 46 0 2 3 14 2 29 28
split_gain=446.864 485.083 556.318 1030.37 685.73 542.886 537.985 548.594 712.595
threshold=-1521.22916662693 1832.9775650000001 1565.5000000000002 184.47919179541387 53.000000000000007 209.50000000000003 108.88296016981754 -41.216666579246514 452.50000000000006
decision_type=2 2 2 2 2 2 2 2 2
left_child=-1 5 -3 4 6 -2 -4 8 -8
right_child=1 2 3 -5 -6 -7 7 -9 -10
leaf_value=-0.22925340845471337 -0.0367300885370032 -0.047600055819390287 0.010821555571297983 0.36151929497718815 -0.26670271027833226 -0.29521244713528588 0.12762703742418025 0.14626420184489958 -0.19940981225020463
leaf_weight=21 265 287 875 23 20 22 36 163 31
leaf_count=21 265 287 875 23 20 22 36 163 31
internal_value=0 0.00279577 0.0146637 0.0302297 0.0234567 -0.0565441 0.0287084 0.0967562 -0.0236885
internal_weight=0 1722 1435 1148 1125 287 1105 230 67
internal_count=1743 1722 1435 1148 1125 287 1105 230 67
is_linear=0
shrinkage=0.05


Tree=72
num_leaves=10
num_cat=0
split_feature=46 0 28 19 14 28 37 0 46
split_gain=419.024 510.556 635.43 628.635 938.126 853.918 713.827 789.577 565.797
threshold=880.22655900000007 1592.5000000000002 1356.1000000238421 1211.7380951642992 113.50000000000001 904.83333337306988 -342.16666662693018 1623.5000000000002 9545.1288050000021
decision_type=2 2 2 2 2 2 2 2 2
left_child=-1 2 -2 5 -5 6 -3 -8 -7
right_child=1 3 -4 4 -6 8 7 -9 -10
leaf_value=-0.10445406054566196 -0.0096476664250511844 0.035842122203241497 -0.27540592280742915 -0.38609088435769084 0.011918607347628528 -0.12269878523314702 0.12382112925726688 0.41613274569476577 0.17287824779748917
leaf_weight=91 1019 241 23 20 57 85 160 27 20
leaf_count=91 1019 241 23 20 57 85 160 27 20
internal_value=0 0.00575383 -0.0155137 0.042083 -0.0914605 0.0613754 0.0927218 0.166027 -0.0663984
internal_weight=0 1652 1042 610 77 533 428 187 105
internal_count=1743 1652 1042 610 77 533 428 187 105
is_linear=0
shrinkage=0.05


Tree=73
num_leaves=10
num_cat=0
split_feature=2 30 0 0 14 0 46 37 31
split_gain=418.525 629.434 475.059 783.469 459.76 406.655 448.763 582.561 471.12
threshold=58.209011735490641 22.206600000000005 1622.5000000000002 1630.5000000000002 226.50000000000003 1541.5000000000002 5170.0158035000013 -661.99999999999989 30.084600500000004
decision_type=2 2 2 2 2 2 2 2 2
left_child=1 -1 5 -4 -3 -2 7 -7 -9
right_child=2 4 3 -5 -6 6 -8 8 -10
leaf_value=-0.31337651505600661 -0.13326237451595566 -0.01366512194378759 0.35620726481653175 -0.04440886818844339 -0.20437826111036192 -0.12561862609970073 0.051407272748785697 0.033498361284947813 -0.0743602500409168
leaf_weight=20 48 448 26 23 34 96 491 424 133
leaf_count=20 48 448 26 23 34 96 491 424 133
internal_value=0 -0.0385226 0.0155829 0.168163 -0.0271179 0.00931072 0.0152928 -0.0118622 0.00774397
internal_weight=0 502 1241 49 482 1192 1144 653 557
internal_count=1743 502 1241 49 482 1192 1144 653 557
is_linear=0
shrinkage=0.05


Tree=74
num_leaves=10
num_cat=0
split_feature=30 20 38 19 19 30 46 45 0
split_gain=410.725 539.753 512.391 513.023 521.362 509.812 491.825 635.464 575.077
threshold=208.21007550000004 964.45000004768383 -999.52857148647297 1715.0000000000002 1444.8333332538607 81.222961500000011 3408.5276075000002 9.3450608029000026 1568.5000000000002
decision_type=2 2 2 2 2 2 2 2 2
left_child=1 2 5 4 6 -1 7 -4 -8
right_child=-2 -3 3 -5 -6 -7 8 -9 -10
leaf_value=-0.34097676634788515 0.20120475739240648 -0.26115967748221014 0.013046758545660895 0.24079541774547619 -0.22358052921295168 -0.051223324925180475 -0.024750951603792683 -0.086086419244141635 0.060165956178835814
leaf_weight=20 25 20 417 23 25 63 303 264 583
leaf_count=20 25 20 417 23 25 63 303 264 583
internal_value=0 -0.00292789 0.000113707 0.00634036 0.00295313 -0.121043 0.00656726 -0.0253837 0.0311255
internal_weight=0 1718 1698 1615 1592 83 1567 681 886
internal_count=1743 1718 1698 1615 1592 83 1567 681 886
is_linear=0
shrinkage=0.05


Tree=75
num_leaves=10
num_cat=0
split_feature=37 15 11 2 0 45 45 28 29
split_gain=408.924 442.916 543.872 602.654 449.557 411.609 419.804 406.121 491.714
threshold=-1521.22916662693 106.50000000000001 60.000000000000007 154.4214411089898 1550.5000000000002 9.939765096150003 9.697678359950002 250.8000000715256 -240.24999999999997
decision_type=2 2 2 2 2 2 2 2 2
left_child=-1 2 3 4 -2 6 -6 -3 -9
right_child=1 7 -4 -5 5 -7 -8 8 -10
leaf_value=-0.21930546661218009 -0.22358179339380177 -0.043256796983226861 -0.23163311689471208 0.20898886775148326 0.0076515303805660406 -0.05311817495059952 0.2426779755949974 -0.0957665921303264 0.057537952162413392
leaf_weight=21 27 161 30 29 380 383 20 57 635
leaf_count=21 27 161 30 29 380 383 20 57 635
internal_value=0 0.00267446 -0.022449 -0.0149692 -0.0229874 -0.0160704 0.0194029 0.0282691 0.0449103
internal_weight=0 1722 869 839 810 783 400 853 692
internal_count=1743 1722 869 839 810 783 400 853 692
is_linear=0
shrinkage=0.05


Tree=76
num_leaves=10
num_cat=0
split_feature=16 0 46 37 0 5 37 14 14
split_gain=393.272 437.348 450.517 460.343 690.697 905.701 603.491 448.678 408.318
threshold=-48.975000023841851 1639.5000000000002 1832.9775650000001 481.66666662693029 1620.5000000000002 19.500000000000004 -502.37499999999994 152.50000000000003 201.50000000000003
decision_type=2 2 2 2 2 2 2 2 2
left_child=-1 2 8 4 -4 6 -6 -5 -2
right_child=1 -3 3 7 5 -7 -8 -9 -10
leaf_value=-0.15698939332595241 -0.039136127811981787 0.19610472783960145 0.0096847978423774041 -0.20052988504370056 0.13653947052617485 -0.079958025028948526 0.4969173322121303 0.057366893755701878 -0.24782342209498612
leaf_weight=39 238 29 1266 48 26 24 21 26 26
leaf_count=39 238 29 1266 48 26 24 21 26 26
internal_value=0 0.00359307 0.000260029 0.0114765 0.0181954 0.169948 0.297559 -0.109918 -0.0596887
internal_weight=0 1704 1675 1411 1337 71 47 74 264
internal_count=1743 1704 1675 1411 1337 71 47 74 264
is_linear=0
shrinkage=0.05


Tree=77
num_leaves=10
num_cat=0
split_feature=3 31 46 21 0 14 2 21 21
split_gain=375.517 480.419 497.956 478.371 511.926 623.644 616.745 545.216 706.203
threshold=53.000000000000007 133.18656100000001 10144.710930000003 1367.8857142925265 1554.5000000000002 105.50000000000001 184.47919179541387 882.0499999523164 1.0000000180025095e-35
decision_type=2 2 2 2 2 2 2 2 2
left_child=1 2 3 4 5 -1 7 8 -6
right_child=-2 -3 -4 -5 6 -7 -8 -9 -10
leaf_value=-0.35494557563215495 -0.20069496527962061 -0.21061389652582319 0.10326691345563617 -0.19606193128612737 0.010371972989663631 -0.045306649184304069 0.26152407626310986 0.16977262339193602 -0.12520301777314252
leaf_weight=20 23 26 122 31 1257 87 24 49 104
leaf_count=20 23 26 122 31 1257 87 24 49 104
internal_value=0 0.00268371 0.00595747 -0.00159454 0.00231752 -0.103183 0.0101896 0.00591157 1.20913e-05
internal_weight=0 1720 1694 1572 1541 107 1434 1410 1361
internal_count=1743 1720 1694 1572 1541 107 1434 1410 1361
is_linear=0
shrinkage=0.05


Tree=78
num_leaves=10
num_cat=0
split_feature=37 18 3 0 30 46 6 2 37
split_gain=374.451 411.727 527.69 464.995 708.946 638.596 504.999 541.175 495.291
threshold=-1521.22916662693 1960.8142857551577 53.000000000000007 1598.5000000000002 54.066480500000004 5864.3085105 1.0000000180025095e-35 60.115859203975603 -548.89999997615803
decision_type=2 2 2 2 2 2 2 2 2
left_child=-1 2 3 6 -5 8 7 -2 -6
right_child=1 -3 -4 4 5 -7 -8 -9 -10
leaf_value=-0.20985797537224637 -0.10881965181650353 0.21269060256688493 -0.24357188506559893 0.27124265059828762 -0.074454572726807278 0.14992996849034024 0.035783696018526677 -0.013212888558343875 0.044176508158318001
leaf_weight=21 193 23 22 32 141 87 355 635 234
leaf_count=21 193 23 22 32 141 87 355 635 234
internal_value=0 0.00255924 -0.000285383 0.00290621 0.0436496 0.0278855 -0.0141075 -0.035498 -0.000428778
internal_weight=0 1722 1699 1677 494 462 1183 828 375
internal_count=1743 1722 1699 1677 494 462 1183 828 375
is_linear=0
shrinkage=0.05


Tree=79
num_leaves=10
num_cat=0
split_feature=38 30 12 5 19 0 14 0 37
split_gain=357.594 554.746 396.42 618.504 572.601 913.64 564.46 403.42 508.021
threshold=-999.52857148647297 81.222961500000011 253.50000000000003 96.500000000000014 1211.7380951642992 1636.5000000000002 113.50000000000001 1598.5000000000002 -604.90000009536732
decision_type=2 2 2 2 2 2 2 2 2
left_child=1 -1 4 7 5 -2 -6 -4 -9
right_child=2 -3 3 -5 6 -7 -8 8 -10
leaf_value=-0.32207282270703996 -0.011930089790586081 -0.028575377841142641 -0.015640634760862537 0.14454079320920366 -0.38433776577003304 0.29402006404101849 -0.033877710335784489 -0.025560696732323127 0.18027855551437191
leaf_weight=21 1019 69 328 112 20 25 27 53 69
leaf_count=21 1019 69 328 112 20 25 27 53 69
internal_value=0 -0.0970581 0.00528447 0.0394003 -0.0122894 -0.0046037 -0.18301 0.0132319 0.0908566
internal_weight=0 90 1653 562 1091 1044 47 450 122
internal_count=1743 90 1653 562 1091 1044 47 450 122
is_linear=0
shrinkage=0.05


Tree=80
num_leaves=10
num_cat=0
split_feature=46 0 28 19 28 14 37 30 46
split_gain=363.233 405.845 585.268 536.346 786.652 748.704 571.489 713.318 477.321
threshold=880.22655900000007 1592.5000000000002 1356.1000000238421 1211.7380951642992 904.83333337306988 113.50000000000001 -342.16666662693018 55.058640000000004 3828.0395805000003
decision_type=2 2 2 2 2 2 2 2 2
left_child=-1 2 8 4 6 -5 -3 -8 -2
right_child=1 3 -4 5 -6 -7 7 -9 -10
leaf_value=-0.097251931889044074 -0.051615021003352614 0.034760062303780523 -0.26302757515855463 -0.34881443597376349 -0.067070565223693854 0.0067497335962559057 0.43342922486364843 0.11744951049122448 0.018859468150236158
leaf_weight=91 388 241 23 20 105 57 20 167 631
leaf_count=91 388 241 23 20 105 57 20 167 631
internal_value=0 0.0053571 -0.0136045 0.0377473 0.0555674 -0.0856046 0.0856538 0.151244 -0.00797478
internal_weight=0 1652 1042 610 533 77 428 187 1019
internal_count=1743 1652 1042 610 533 77 428 187 1019
is_linear=0
shrinkage=0.05


Tree=81
num_leaves=10
num_cat=0
split_feature=30 20 19 19 31 0 2 12 46
split_gain=346.122 446.558 429.62 467.842 475.331 393.121 555.212 641.103 528.36
threshold=208.21007550000004 964.45000004768383 1715.0000000000002 1444.8333332538607 90.103000500000022 1575.5000000000002 179.44434360910086 430.50000000000006 3324.7885800000004
decision_type=2 2 2 2 2 2 2 2 2
left_child=1 2 3 4 5 -1 7 8 -7
right_child=-2 -3 -4 -5 -6 6 -8 -9 -10
leaf_value=-0.027932839138138495 0.18470439302921296 -0.23757049433887004 0.21012533580263459 -0.21337537971826703 -0.11199994787071528 -0.0032793885549786046 0.28580796882510184 -0.1229302667183419 0.072401080036319065
leaf_weight=535 25 20 24 26 89 510 20 73 421
leaf_count=535 25 20 24 26 89 510 20 73 421
internal_value=0 -0.00268778 7.87988e-05 -0.00293262 0.000387471 0.00680343 0.0249518 0.0197554 0.0309435
internal_weight=0 1718 1698 1674 1648 1559 1024 1004 931
internal_count=1743 1718 1698 1674 1648 1559 1024 1004 931
is_linear=0
shrinkage=0.05


Tree=82
num_leaves=10
num_cat=0
split_feature=2 30 0 0 31 37 45 0 46
split_gain=334.103 519.827 461.196 768.594 425.825 460.232 345.813 315.117 346.717
threshold=58.562359886227348 22.206600000000005 1622.5000000000002 1630.5000000000002 1.0000000180025095e-35 365.03333342075354 10.632527372400002 1541.5000000000002 5449.0711460000011
decision_type=2 2 2 2 2 2 2 2 2
left_child=1 -1 7 -4 5 6 -3 -2 -9
right_child=2 4 3 -5 -6 -7 -8 8 -10
leaf_value=-0.28393507048487665 -0.11758148869654786 0.03161525165884143 0.35790848904848099 -0.042594107726345892 -0.085539856193105834 0.2171599576473236 -0.085753738279304201 -0.0095711646956134384 0.046647924293083121
leaf_weight=20 48 193 25 23 178 25 93 677 461
leaf_count=20 48 193 25 23 178 25 93 677 461
internal_value=0 -0.0340848 0.0140593 0.166001 -0.023866 0.0114329 -0.00655019 0.00790987 0.013203
internal_weight=0 509 1234 48 489 311 286 1186 1138
internal_count=1743 509 1234 48 489 311 286 1186 1138
is_linear=0
shrinkage=0.05


Tree=83
num_leaves=10
num_cat=0
split_feature=37 18 3 46 21 30 28 30 0
split_gain=333.697 356.729 459.405 415.06 471.317 440.652 423.138 395.462 608.386
threshold=-1521.22916662693 1960.8142857551577 53.000000000000007 10144.710930000003 1.0000000180025095e-35 45.02783800000001 1325.7500000000002 91.002600000000015 1589.5000000000002
decision_type=2 2 2 2 2 2 2 2 2
left_child=-1 2 3 4 6 -6 -2 -7 -9
right_child=1 -3 -4 -5 5 7 -8 8 -10
leaf_value=-0.19810899375450045 0.011195734649746634 0.19800992232301962 -0.22723224406892603 0.10049206002377997 0.068194541487504132 -0.16619106617269166 -0.18873373634285398 -0.15036956144101693 0.16966468418637914
leaf_weight=21 1335 23 22 102 44 109 27 33 27
leaf_count=21 1335 23 22 102 44 109 27 33 27
internal_value=0 0.00241596 -0.000231866 0.00274608 -0.00358414 -0.0727489 0.00723238 -0.109444 -0.00635415
internal_weight=0 1722 1699 1677 1575 213 1362 169 60
internal_count=1743 1722 1699 1677 1575 213 1362 169 60
is_linear=0
shrinkage=0.05


Tree=84
num_leaves=10
num_cat=0
split_feature=46 45 2 30 12 8 29 28 0
split_gain=319.956 477.715 444.053 371.978 625.433 371.307 367.51 557.409 468.961
threshold=1832.9775650000001 6.2197806243500011 65.32495403025645 20.039759500000002 105.50000000000001 63.500000000000007 -195.89999997615811 10.333333373069765 1598.5000000000002
decision_type=2 2 2 2 2 2 2 2 2
left_child=1 2 -1 4 -2 -3 7 -5 -8
right_child=3 5 -4 6 -6 -7 8 -9 -10
leaf_value=0.1071431755153856 -0.32259775210510599 -0.070817637390878416 -0.12798068496797765 0.11782229499414909 0.050301435565494969 -0.29871830031275753 0.0084230629963105361 -0.082130136653857183 0.0842281008850186
leaf_weight=71 22 168 28 43 23 20 922 184 262
leaf_count=71 22 168 28 43 23 20 922 184 262
internal_value=0 -0.048251 0.0406435 0.009511 -0.132005 -0.0950624 0.0140243 -0.0442537 0.0251975
internal_weight=0 287 99 1456 45 188 1411 227 1184
internal_count=1743 287 99 1456 45 188 1411 227 1184
is_linear=0
shrinkage=0.05


Tree=85
num_leaves=10
num_cat=0
split_feature=38 30 2 0 30 45 29 46 30
split_gain=318.236 468.57 345.104 479.714 860.168 478.738 431.176 613.129 411.742
threshold=-999.52857148647297 81.222961500000011 58.209011735490641 1598.5000000000002 63.284521000000005 12.91511256365 -146.71428573131558 4638.7207850000004 184.34520300000003
decision_type=2 2 2 2 2 2 2 2 2
left_child=1 -1 5 8 -5 -2 -7 -8 -4
right_child=2 -3 3 4 -6 6 7 -9 -10
leaf_value=-0.29836138713927496 -0.0045234284851290484 -0.028621974339087804 0.0083534894192193072 0.39594528287649156 0.053901204785141314 0.046402551013010523 -0.096576428250832999 -0.40889548171650286 -0.21058738204565916
leaf_weight=21 382 69 898 20 227 27 55 22 22
leaf_count=21 382 69 898 20 227 27 55 22 22
internal_value=0 -0.0915612 0.00498518 0.0197284 0.0815971 -0.0304166 -0.125524 -0.18581 0.00311795
internal_weight=0 90 1653 1167 247 486 104 77 920
internal_count=1743 90 1653 1167 247 486 104 77 920
is_linear=0
shrinkage=0.05


Tree=86
num_leaves=10
num_cat=0
split_feature=30 20 38 19 19 0 26 46 21
split_gain=309.602 385.434 382.145 396.667 450.218 373.201 593.403 481.526 615.84
threshold=208.21007550000004 964.45000004768383 -999.52857148647297 1715.0000000000002 1444.8333332538607 1565.5000000000002 667.5499999523164 3408.5276075000002 1412.321428537369
decision_type=2 2 2 2 2 2 2 2 2
left_child=1 2 -1 4 5 6 -4 -7 -9
right_child=-2 -3 3 -5 -6 7 -8 8 -10
leaf_value=-0.10460332843912655 0.17468856596946716 -0.22075834769755601 -0.11300512927590439 0.21156550930893939 -0.20808363521099091 -0.013125379404067531 0.031391234772938086 0.05874519705728648 -0.18108380058381177
leaf_weight=83 25 20 153 23 25 645 133 608 28
leaf_count=83 25 20 153 23 25 645 133 608 28
internal_value=0 -0.00254203 2.82407e-05 0.00540559 0.00242715 0.00578565 -0.0458558 0.0173153 0.0481867
internal_weight=0 1718 1698 1615 1592 1567 286 1281 636
internal_count=1743 1718 1698 1615 1592 1567 286 1281 636
is_linear=0
shrinkage=0.05


Tree=87
num_leaves=10
num_cat=0
split_feature=16 0 37 46 0 37 26 0 14
split_gain=308.145 353.005 340.232 368.96 556.557 485.196 403.979 641.221 565.206
threshold=-48.975000023841851 1639.5000000000002 481.66666662693029 1832.9775650000001 1622.5000000000002 -600.74999999999989 944.85000002384197 1565.5000000000002 200.50000000000003
decision_type=2 2 2 2 2 2 2 2 2
left_child=-1 2 3 -2 6 -6 7 -5 -8
right_child=1 -3 -4 4 5 -7 8 -9 -10
leaf_value=-0.13896363407182388 -0.050260356882214544 0.17613577924925705 -0.095510651751167408 -0.049964019213803113 0.052146927826106554 0.36144837041695915 -0.093021008173624686 0.04868231051110828 0.036321787501141532
leaf_weight=39 250 29 88 213 32 21 195 727 149
leaf_count=39 250 29 88 213 32 21 195 727 149
internal_value=0 0.00318051 0.000186056 0.00549249 0.0159175 0.1747 0.00936336 0.0263295 -0.0369975
internal_weight=0 1704 1675 1587 1337 53 1284 940 344
internal_count=1743 1704 1675 1587 1337 53 1284 940 344
is_linear=0
shrinkage=0.05


Tree=88
num_leaves=10
num_cat=0
split_feature=37 18 3 46 1 31 25 26 46
split_gain=293.758 315.334 418.733 364.314 429.117 481.76 510.363 481.163 520.553
threshold=-1521.22916662693 1960.8142857551577 53.000000000000007 10144.710930000003 6.5000000000000009 10.133759500000002 608.07142853736889 1304.696428537369 6224.3680255000008
decision_type=2 2 2 2 2 2 2 2 2
left_child=-1 2 3 4 5 6 7 8 -2
right_child=1 -3 -4 -5 -6 -7 -8 -9 -10
leaf_value=-0.18587589448406583 0.021836412628840774 0.18616252852522808 -0.21694171469319953 0.094196360147393798 -0.10932342548544208 -0.038736243572561668 -0.19617536328732968 -0.11979962183305851 0.13144368202984333
leaf_weight=21 812 23 22 102 90 470 26 52 125
leaf_count=21 812 23 22 102 90 470 26 52 125
internal_value=0 0.00226678 -0.000222686 0.00262038 -0.00331026 0.00311478 0.0224941 0.0282427 0.0364585
internal_weight=0 1722 1699 1677 1575 1485 1015 989 937
internal_count=1743 1722 1699 1677 1575 1485 1015 989 937
is_linear=0
shrinkage=0.05


Tree=89
num_leaves=10
num_cat=0
split_feature=45 46 8 14 3 0 2 26 37
split_gain=293.546 284.496 405.656 349.578 301.696 339.159 822.798 829.016 554.623
threshold=2.2765712332000008 1832.9775650000001 76.500000000000014 201.50000000000003 53.000000000000007 1575.5000000000002 184.47919179541387 717.7999999523164 -1193.41666662693
decision_type=2 2 2 2 2 2 2 2 2
left_child=-1 2 3 -2 5 -3 7 -7 -9
right_child=1 4 -4 -5 -6 6 -8 8 -10
leaf_value=0.1305831195875293 -0.012088603212388322 -0.022188996437064124 -0.25558754706924613 -0.20555592225148131 -0.18231869666349321 0.074879033976476495 0.33734692508975667 -0.19596943529539332 -0.0072607959977812279
leaf_weight=42 229 546 22 26 21 381 21 43 412
leaf_count=42 229 546 22 26 21 381 21 43 412
internal_value=0 -0.00322427 -0.0495873 -0.0318147 0.00579437 0.00861003 0.0282323 0.0204674 -0.0250948
internal_weight=0 1701 277 255 1424 1403 857 836 455
internal_count=1743 1701 277 255 1424 1403 857 836 455
is_linear=0
shrinkage=0.05


Tree=90
num_leaves=10
num_cat=0
split_feature=46 45 14 16 0 30 30 28 6
split_gain=273.033 331.121 304.872 294.52 316.438 1071.07 411.14 411.207 361.285
threshold=880.22655900000007 2.1438226332000005 138.50000000000003 -48.975000023841851 1598.5000000000002 54.066480500000004 194.25587400000003 940.39285719394695 1.0000000180025095e-35
decision_type=2 2 2 2 2 2 2 2 2
left_child=2 -2 -1 -3 8 -6 7 -7 -5
right_child=1 3 -4 4 5 6 -8 -9 -10
leaf_value=-0.034190044536122254 0.16391719491221013 -0.13991670053866176 -0.25140537108693806 -0.027372389685027074 0.3521418021275447 0.035090587589258967 0.23673958600986575 -0.093887287671012551 0.033970730552689461
leaf_weight=70 32 36 21 805 26 313 21 77 342
leaf_count=70 32 36 21 805 26 313 21 77 342
internal_value=0 0.00464456 -0.0843167 0.00149844 0.00471242 0.0409182 0.0212301 0.00962573 -0.00908176
internal_weight=0 1652 91 1620 1584 437 411 390 1147
internal_count=1743 1652 91 1620 1584 437 411 390 1147
is_linear=0
shrinkage=0.05


Tree=91
num_leaves=10
num_cat=0
split_feature=11 2 30 31 0 0 15 15 19
split_gain=260.762 283.195 709.794 669.67 416.545 364.863 354.679 386.808 464.107
threshold=116.50000000000001 106.75583917264713 13.431600000000001 131.73887850000003 1617.5000000000002 1547.5000000000002 201.50000000000003 206.50000000000003 922.91666662693035
decision_type=2 2 2 2 2 2 2 2 2
left_child=1 2 -1 -4 5 -3 -7 8 -8
right_child=-2 4 3 -5 -6 6 7 -9 -10
leaf_value=-0.27881313969070715 -0.16031903505325318 -0.14775340842794063 0.00041733790008771811 -0.28431554436683654 0.26015616223216059 -0.004394424725235639 0.08893544245183363 0.006382924775282542 0.32930997280137886
leaf_weight=24 25 28 1240 21 20 211 71 75 28
leaf_count=24 25 28 1240 21 20 211 71 75 28
internal_value=0 0.00233293 -0.00945108 -0.00432445 0.037304 0.0265121 0.039186 0.0920334 0.15692
internal_weight=0 1718 1285 1261 433 413 385 174 99
internal_count=1743 1718 1285 1261 433 413 385 174 99
is_linear=0
shrinkage=0.05


Tree=92
num_leaves=10
num_cat=0
split_feature=28 37 0 0 2 28 46 8 28
split_gain=246.697 625.701 571.578 440.846 424.752 619.991 414.779 556.998 432.026
threshold=280.41666662693029 -1160.3999999761579 1554.5000000000002 1615.5000000000002 40.883294238543975 869.60000002384197 4051.1540510000004 80.000000000000014 679.62500000000011
decision_type=2 2 2 2 2 2 2 2 2
left_child=2 -2 -1 6 -5 -6 7 -3 -8
right_child=1 3 -4 4 5 -7 8 -9 -10
leaf_value=-0.22888819960256421 -0.17180682989684018 -0.0055336879045927607 -0.014534366593385736 -0.046439087901521348 0.29525634703104914 0.0086694978643208753 0.079748866003556337 -0.18817872709554176 -0.012546557569146705
leaf_weight=33 44 451 540 29 46 32 305 46 217
leaf_count=33 44 451 540 29 46 32 305 46 217
internal_value=0 0.013164 -0.0268794 0.020392 0.116939 0.177682 0.0102541 -0.0224385 0.0413808
internal_weight=0 1170 573 1126 107 78 1019 497 522
internal_count=1743 1170 573 1126 107 78 1019 497 522
is_linear=0
shrinkage=0.05


Tree=93
num_leaves=10
num_cat=0
split_feature=46 45 38 46 30 20 46 15 11
split_gain=240.814 298.005 294.858 630.042 421.644 385.666 335.876 371.892 355.205
threshold=880.22655900000007 2.2765712332000008 -799.11904764175404 4357.0485855000015 81.222961500000011 784.00000000000011 15454.195856000002 209.50000000000003 99.000000000000014
decision_type=2 2 2 2 2 2 2 2 2
left_child=-1 -2 3 -3 -5 6 7 8 -4
right_child=1 2 5 4 -6 -7 -8 -9 -10
leaf_value=-0.079185686362804958 0.14093389270874934 -0.24810828293363252 0.018838973189930445 -0.17619764299264976 0.047516722999074883 -0.20485025651398159 0.19265022921562194 -0.079665888636372986 -0.17530826975901923
leaf_weight=91 39 36 1282 28 85 21 25 112 24
leaf_count=91 39 36 1282 28 85 21 25 112 24
internal_value=0 0.00436192 0.00105981 -0.0659497 -0.00791693 0.00787977 0.0109756 0.00777263 0.0152712
internal_weight=0 1652 1613 149 113 1464 1443 1418 1306
internal_count=1743 1652 1613 149 113 1464 1443 1418 1306
is_linear=0
shrinkage=0.05


Tree=94
num_leaves=10
num_cat=0
split_feature=30 20 19 19 31 0 46 30 0
split_gain=235.649 328.387 329.98 422.057 358.62 311.739 253.81 325.441 389.927
threshold=208.21007550000004 964.45000004768383 1715.0000000000002 1444.8333332538607 138.25344100000004 1639.5000000000002 1832.9775650000001 184.34520300000003 1575.5000000000002
decision_type=2 2 2 2 2 2 2 2 2
left_child=1 2 3 4 5 6 -1 8 -8
right_child=-2 -3 -4 -5 -6 -7 7 -9 -10
leaf_value=-0.04392086438410707 0.15240363049507144 -0.20363883465528487 0.18423919087896745 -0.2023647596056645 -0.20463277924628487 0.17179947167083071 -0.019284752449558379 -0.14565228201223143 0.036344305607013586
leaf_weight=268 25 20 24 26 21 27 537 33 762
leaf_count=268 25 20 24 26 21 27 537 33 762
internal_value=0 -0.00221775 0.000154703 -0.0024845 0.00066895 0.00331882 0.000475707 0.00940835 0.0133475
internal_weight=0 1718 1698 1674 1648 1627 1600 1332 1299
internal_count=1743 1718 1698 1674 1648 1627 1600 1332 1299
is_linear=0
shrinkage=0.05


Tree=95
num_leaves=10
num_cat=0
split_feature=16 0 37 0 28 18 0 2 26
split_gain=234.867 277.45 294.615 322.015 306.445 411.413 366.849 480.347 647.649
threshold=-48.975000023841851 1639.5000000000002 481.66666662693029 1600.5000000000002 1018.3571428060533 1842.2857142686846 1563.5000000000002 107.74274870681883 939.50000000000011
decision_type=2 2 2 2 2 2 2 2 2
left_child=-1 2 4 -4 5 6 -2 8 -8
right_child=1 -3 3 -5 -6 -7 7 -9 -10
leaf_value=-0.1213206748931836 -0.050107466958983764 0.15610973182423363 -0.033707450855559505 -0.25459227548404173 -0.072462596502786469 0.2210931498071422 0.022146462099229075 0.078412860398584944 -0.083399570140696266
leaf_weight=39 229 29 66 22 118 23 773 265 179
leaf_count=39 229 29 66 22 118 23 773 265 179
internal_value=0 0.00277671 0.000121985 -0.0889287 0.00505989 0.011287 0.00794985 0.0188744 0.00230115
internal_weight=0 1704 1675 88 1587 1469 1446 1217 952
internal_count=1743 1704 1675 88 1587 1469 1446 1217 952
is_linear=0
shrinkage=0.05


Tree=96
num_leaves=10
num_cat=0
split_feature=29 10 45 30 46 29 15 25 18
split_gain=234.281 471.226 515.921 799.686 574.071 475.556 411.022 418.881 391.513
threshold=1.0000000180025095e-35 69.000000000000014 10.590401736150001 132.05555750000005 3354.5573470000004 239.08749997615817 210.50000000000003 491.84285724163061 1143.0666666030886
decision_type=2 2 2 2 2 2 2 2 2
left_child=6 2 3 -2 -5 -4 7 -1 -7
right_child=1 -3 5 4 -6 8 -8 -9 -10
leaf_value=-0.0018448619555865632 0.019117655909362225 0.22162190953801786 0.038082955069555585 0.026651772304817484 0.32356765028543588 -0.055322646209395226 -0.17562176914742361 -0.15210911172385119 -0.25480431852669549
leaf_weight=867 370 28 131 27 41 162 39 49 29
leaf_count=867 370 28 131 27 41 162 39 49 29
internal_value=0 0.0201803 0.0127588 0.0480808 0.205675 -0.035288 -0.0166514 -0.00988302 -0.0856104
internal_weight=0 788 760 438 68 322 955 916 191
internal_count=1743 788 760 438 68 322 955 916 191
is_linear=0
shrinkage=0.05


Tree=97
num_leaves=10
num_cat=0
split_feature=19 14 19 0 6 2 14 30 0
split_gain=231.652 715.344 587.703 539.801 316.184 336.713 314.548 357.493 311.877
threshold=1211.7380951642992 103.50000000000001 1782.0000000000002 1639.5000000000002 1.0000000180025095e-35 58.562359886227348 152.50000000000003 160.18547650000002 1589.5000000000002
decision_type=2 2 2 2 2 2 2 2 2
left_child=3 -2 -3 4 5 8 -6 -8 -1
right_child=1 2 -4 -5 6 -7 7 -9 -10
leaf_value=-0.1138078322800288 -0.34001032926142216 -0.073047507922165106 0.22998478546738627 0.2403237596154213 0.0060216241595496892 0.0033354869765094206 0.060082967326058251 0.26523601293563842 -0.011076700101670979
leaf_weight=138 20 80 20 24 317 819 141 25 159
leaf_count=138 20 80 20 24 317 819 141 25 159
internal_value=0 -0.0670359 -0.012441 0.00495645 0.00142373 -0.0132033 0.0352204 0.0909795 -0.0588104
internal_weight=0 120 100 1623 1599 1116 483 166 297
internal_count=1743 120 100 1623 1599 1116 483 166 297
is_linear=0
shrinkage=0.05


Tree=98
num_leaves=10
num_cat=0
split_feature=37 28 11 0 46 38 12 37 0
split_gain=221.417 266.74 490.938 413.955 346.785 521.535 354.229 330.148 490.297
threshold=-1521.22916662693 280.41666662693029 65.000000000000014 1554.5000000000002 6165.0552810000017 -505.6000000238418 226.50000000000003 -966.72500002384174 1615.5000000000002
decision_type=2 2 2 2 2 2 2 2 2
left_child=-1 2 3 -2 5 6 -3 -7 -9
right_child=1 4 -4 -5 -6 7 -8 8 -10
leaf_value=-0.16137396352631705 -0.20446418679784983 -0.13643629245105246 -0.26937640950083735 -0.0071151163607778567 0.058822041651508117 -0.13912052516825499 0.025259308107197287 0.012188083539267296 0.17106091720315647
leaf_weight=21 28 105 20 521 333 32 50 580 53
leaf_count=21 28 105 20 521 333 32 50 580 53
internal_value=0 0.00196798 -0.0260448 -0.0171803 0.0157922 -0.00168218 -0.0842764 0.0175691 0.0254902
internal_weight=0 1722 569 549 1153 820 155 665 633
internal_count=1743 1722 569 549 1153 820 155 665 633
is_linear=0
shrinkage=0.05


Tree=99
num_leaves=10
num_cat=0
split_feature=46 14 45 3 16 37 14 30 3
split_gain=221.78 274.751 251.334 259.064 318.853 356.601 554.943 416.766 294.093
threshold=880.22655900000007 138.50000000000003 2.1438226332000005 53.000000000000007 1437.1666667461398 -1193.41666662693 205.50000000000003 208.21007550000004 1.0000000180025095e-35
decision_type=2 2 2 2 2 2 2 2 2
left_child=1 -1 -2 4 5 6 -4 8 -7
right_child=2 -3 3 -5 -6 7 -8 -9 -10
leaf_value=-0.028405787199735646 0.14294875136110932 -0.23461181010518756 -0.24496112427541186 -0.16896429908546537 0.17415704489858064 0.008022531927612965 0.080159380961032145 0.23217624694108965 -0.085211364995274277
